{"train_only_in_receptive_field": false, "class_weights": [[13.503708429699337, 13.2937897464081, 8.31890537486489, 6.101729729729729, 4.6169766046790635, 2.8590267459138183, 1.8743482736863077, 1.2690785627557672, 0.8250643199625775, 0.5392177468664016, 0.37296225729358246, 0.2545835350579914, 0.18861575067337702, 0.14128098497768848, 0.12048474826164052, 0.11911354417717296, 0.13518197988752598, 0.20153805135725114, 0.4702502291221151, 2.0696597076223533, 25.066321243523312, 40.0]], "n_output_features": 1, "penalties": [[[1.0, 1.0, 1.0, 1.0, 1.0, 1.0, 1.0, 1.0, 1.0, 1.0, 1.0, 1.0, 1.023292992280754, 1.0471285480508996, 1.0715193052376064, 1.096478196143185, 1.1220184543019633, 1.1481536214968828, 1.1748975549395295, 1.202264434617413, 1.2302687708123816, 1.2589254117941673], [1.0, 1.0, 1.0, 1.0, 1.0, 1.0, 1.0, 1.0, 1.0, 1.0, 1.0, 1.0, 1.023292992280754, 1.0471285480508996, 1.0715193052376064, 1.096478196143185, 1.1220184543019633, 1.1481536214968828, 1.1748975549395295, 1.202264434617413, 1.2302687708123816, 1.2589254117941673], [1.0, 1.0, 1.0, 1.0, 1.0, 1.0, 1.0, 1.0, 1.0, 1.0, 1.0, 1.0, 1.023292992280754, 1.0471285480508996, 1.0715193052376064, 1.096478196143185, 1.1220184543019633, 1.1481536214968828, 1.1748975549395295, 1.202264434617413, 1.2302687708123816, 1.2589254117941673], [1.0, 1.0, 1.0, 1.0, 1.0, 1.0, 1.0, 1.0, 1.0, 1.0, 1.0, 1.0, 1.023292992280754, 1.0471285480508996, 1.0715193052376064, 1.096478196143185, 1.1220184543019633, 1.1481536214968828, 1.1748975549395295, 1.202264434617413, 1.2302687708123816, 1.2589254117941673], [1.0, 1.0, 1.0, 1.0, 1.0, 1.0, 1.0, 1.0, 1.0, 1.0, 1.0, 1.0, 1.023292992280754, 1.0471285480508996, 1.0715193052376064, 1.096478196143185, 1.1220184543019633, 1.1481536214968828, 1.1748975549395295, 1.202264434617413, 1.2302687708123816, 1.2589254117941673], [1.0, 1.0, 1.0, 1.0, 1.0, 1.0, 1.0, 1.0, 1.0, 1.0, 1.0, 1.0, 1.023292992280754, 1.0471285480508996, 1.0715193052376064, 1.096478196143185, 1.1220184543019633, 1.1481536214968828, 1.1748975549395295, 1.202264434617413, 1.2302687708123816, 1.2589254117941673], [1.0, 1.0, 1.0, 1.0, 1.0, 1.0, 1.0, 1.0, 1.0, 1.0, 1.0, 1.0, 1.023292992280754, 1.0471285480508996, 1.0715193052376064, 1.096478196143185, 1.1220184543019633, 1.1481536214968828, 1.1748975549395295, 1.202264434617413, 1.2302687708123816, 1.2589254117941673], [1.0, 1.0, 1.0, 1.0, 1.0, 1.0, 1.0, 1.0, 1.0, 1.0, 1.0, 1.0, 1.023292992280754, 1.0471285480508996, 1.0715193052376064, 1.096478196143185, 1.1220184543019633, 1.1481536214968828, 1.1748975549395295, 1.202264434617413, 1.2302687708123816, 1.2589254117941673], [1.0, 1.0, 1.0, 1.0, 1.0, 1.0, 1.0, 1.0, 1.0, 1.0, 1.0, 1.0, 1.023292992280754, 1.0471285480508996, 1.0715193052376064, 1.096478196143185, 1.1220184543019633, 1.1481536214968828, 1.1748975549395295, 1.202264434617413, 1.2302687708123816, 1.2589254117941673], [1.0, 1.0, 1.0, 1.0, 1.0, 1.0, 1.0, 1.0, 1.0, 1.0, 1.0, 1.0, 1.023292992280754, 1.0471285480508996, 1.0715193052376064, 1.096478196143185, 1.1220184543019633, 1.1481536214968828, 1.1748975549395295, 1.202264434617413, 1.2302687708123816, 1.2589254117941673], [1.0, 1.0, 1.0, 1.0, 1.0, 1.0, 1.0, 1.0, 1.0, 1.0, 1.0, 1.0, 1.023292992280754, 1.0471285480508996, 1.0715193052376064, 1.096478196143185, 1.1220184543019633, 1.1481536214968828, 1.1748975549395295, 1.202264434617413, 1.2302687708123816, 1.2589254117941673], [1.2589254117941673, 1.2302687708123816, 1.202264434617413, 1.1748975549395295, 1.1481536214968828, 1.1220184543019633, 1.096478196143185, 1.0715193052376064, 1.0471285480508996, 1.023292992280754, 1.0, 1.0, 1.0, 1.0, 1.0, 1.0, 1.0, 1.0, 1.0, 1.0, 1.0, 1.0], [1.2589254117941673, 1.2302687708123816, 1.202264434617413, 1.1748975549395295, 1.1481536214968828, 1.1220184543019633, 1.096478196143185, 1.0715193052376064, 1.0471285480508996, 1.023292992280754, 1.0, 1.0, 1.0, 1.0, 1.0, 1.0, 1.0, 1.0, 1.0, 1.0, 1.0, 1.0], [1.2589254117941673, 1.2302687708123816, 1.202264434617413, 1.1748975549395295, 1.1481536214968828, 1.1220184543019633, 1.096478196143185, 1.0715193052376064, 1.0471285480508996, 1.023292992280754, 1.0, 1.0, 1.0, 1.0, 1.0, 1.0, 1.0, 1.0, 1.0, 1.0, 1.0, 1.0], [1.2589254117941673, 1.2302687708123816, 1.202264434617413, 1.1748975549395295, 1.1481536214968828, 1.1220184543019633, 1.096478196143185, 1.0715193052376064, 1.0471285480508996, 1.023292992280754, 1.0, 1.0, 1.0, 1.0, 1.0, 1.0, 1.0, 1.0, 1.0, 1.0, 1.0, 1.0], [1.2589254117941673, 1.2302687708123816, 1.202264434617413, 1.1748975549395295, 1.1481536214968828, 1.1220184543019633, 1.096478196143185, 1.0715193052376064, 1.0471285480508996, 1.023292992280754, 1.0, 1.0, 1.0, 1.0, 1.0, 1.0, 1.0, 1.0, 1.0, 1.0, 1.0, 1.0], [1.2589254117941673, 1.2302687708123816, 1.202264434617413, 1.1748975549395295, 1.1481536214968828, 1.1220184543019633, 1.096478196143185, 1.0715193052376064, 1.0471285480508996, 1.023292992280754, 1.0, 1.0, 1.0, 1.0, 1.0, 1.0, 1.0, 1.0, 1.0, 1.0, 1.0, 1.0], [1.2589254117941673, 1.2302687708123816, 1.202264434617413, 1.1748975549395295, 1.1481536214968828, 1.1220184543019633, 1.096478196143185, 1.0715193052376064, 1.0471285480508996, 1.023292992280754, 1.0, 1.0, 1.0, 1.0, 1.0, 1.0, 1.0, 1.0, 1.0, 1.0, 1.0, 1.0], [1.2589254117941673, 1.2302687708123816, 1.202264434617413, 1.1748975549395295, 1.1481536214968828, 1.1220184543019633, 1.096478196143185, 1.0715193052376064, 1.0471285480508996, 1.023292992280754, 1.0, 1.0, 1.0, 1.0, 1.0, 1.0, 1.0, 1.0, 1.0, 1.0, 1.0, 1.0], [1.2589254117941673, 1.2302687708123816, 1.202264434617413, 1.1748975549395295, 1.1481536214968828, 1.1220184543019633, 1.096478196143185, 1.0715193052376064, 1.0471285480508996, 1.023292992280754, 1.0, 1.0, 1.0, 1.0, 1.0, 1.0, 1.0, 1.0, 1.0, 1.0, 1.0, 1.0], [1.2589254117941673, 1.2302687708123816, 1.202264434617413, 1.1748975549395295, 1.1481536214968828, 1.1220184543019633, 1.096478196143185, 1.0715193052376064, 1.0471285480508996, 1.023292992280754, 1.0, 1.0, 1.0, 1.0, 1.0, 1.0, 1.0, 1.0, 1.0, 1.0, 1.0, 1.0], [1.2589254117941673, 1.2302687708123816, 1.202264434617413, 1.1748975549395295, 1.1481536214968828, 1.1220184543019633, 1.096478196143185, 1.0715193052376064, 1.0471285480508996, 1.023292992280754, 1.0, 1.0, 1.0, 1.0, 1.0, 1.0, 1.0, 1.0, 1.0, 1.0, 1.0, 1.0]]], "use_skip_connections": true, "learn_all_outputs": true, "dilation_depth": 9, "early_stopping_patience_fraction": 3, "_pool_pretrained_conv": ["global"], "n_channels": 4, "max_epochs": 100, "preprocessing_params": [{"truncate": 3, "smooth_signal": true, "smoothing_function": "gaussian_filter1d", "u": 2.5, "normalise_read_counts": null, "times_median_coverage_max": null, "sigma": 5}], "train_with_soft_target_stdev": false, "res_dropout": 0.0193813528635, "use_bias": false, "nesterov": true, "n_stacks": 2, "kernel_lengths": [16], "_train_pretrained_conv": [true], "minibatch_size": 32, "batch_normalization": true, "momentum": 0.9, "optimizer": "rmsprop", "final_l2": 4.04457917755e-05, "epsilon": 0.001, "learning_rate": 0.00152303885683, "pool_sizes": [1], "conv_n_filters": [32], "_pretrained_conv_n_filters": [256], "penalise_misclassification": false, "n_output_bins": [22], "dropout": 0.0895450991252, "weight_decay": 0.0, "input_nodes_number": 2000, "res_l2": 1.00097069573e-05, "_pretrained_models": [[[[[0.046661537140607834, 0.07368429750204086, 0.1345144808292389, -0.42732423543930054, -0.01652776636183262, 0.017354890704154968, -0.2655285894870758, -0.3469068109989166, -0.008865437470376492, 0.06041783466935158, 0.038474272936582565, 0.01410596165806055, -0.39264923334121704, -0.025073973461985588, -0.014487197622656822, -0.03487672656774521, 0.06664323806762695, -0.04262154549360275, -0.012772271409630775, -0.005973015911877155, -0.0020307679660618305, -0.03838348761200905, 0.01872752420604229, 0.0021990372333675623, -0.07760202884674072, 0.09014805406332016, 0.004993460141122341, -0.10239911079406738, -0.03708012029528618, -0.13956505060195923, 0.10543280094861984, -0.013043186627328396, -0.04373636469244957, -0.11245901137590408, -0.02383558079600334, -0.013692380860447884, -0.05088658258318901, 0.008302795700728893, -0.32458803057670593, 0.02274855226278305, -0.3971068561077118, 0.15842470526695251, 0.13964082300662994, -0.00036194606218487024, -0.06364159286022186, 0.15882672369480133, -0.030571144074201584, -0.22778688371181488, -0.01494691800326109, 0.130930557847023, -0.15182098746299744, -0.15922090411186218, 0.040888428688049316, -0.16177833080291748, -0.0146470433101058, -0.06169164553284645, -0.09040425717830658, -0.16890482604503632, 0.017801251262426376, 0.025125013664364815, -0.22885644435882568, -0.24932299554347992, 0.012279495596885681, 0.06567154824733734, -0.1430569291114807, -0.1967725306749344, -0.06972868740558624, 0.012492911890149117, -0.23013935983181, -0.3376055359840393, -0.14344468712806702, -0.35871344804763794, -0.03999615088105202, 0.19724327325820923, -0.025060323998332024, 0.010707546025514603, 0.06782832741737366, -0.03496650606393814, -0.003834445495158434, -0.11056086421012878, -0.3194946050643921, 0.008447244763374329, -0.07137700915336609, 0.15721479058265686, 0.028328096494078636, -0.14988206326961517, -0.018974313512444496, 0.007993217557668686, -0.328418493270874, 0.02957349270582199, -0.07429791241884232, -0.05519911274313927, 0.050320420414209366, -0.026203682646155357, -0.24194948375225067, 0.01775030791759491, -0.3849242925643921, -0.130983367562294, -0.057449378073215485, -0.0868583545088768, -0.0532645583152771, 0.04964238777756691, -0.004722886253148317, 0.07646944373846054, -0.08178070187568665, -0.4132464528083801, -0.3556309938430786, 0.10940929502248764, -0.07209162414073944, 0.18557371199131012, -0.26943016052246094, 0.015072870999574661, -0.4510236084461212, -0.07759615778923035, -0.17916721105575562, -0.27162694931030273, 0.05491204932332039, 0.007163628935813904, 0.06696414202451706, -0.01934819482266903, -0.07214928418397903, -0.19351954758167267, 0.0787668451666832, -0.17154376208782196, 0.018352940678596497, -0.08231879770755768, 0.08771386742591858, -0.2046578973531723, -0.036989159882068634, -0.2076730728149414, -0.13240140676498413, 0.02580077573657036, -0.13302378356456757, 0.1441822499036789, -0.16487859189510345, 0.061538923531770706, -0.13174565136432648, -0.10766467452049255, -0.222315713763237, -0.14599376916885376, 0.06581630557775497, 0.1585560441017151, -0.4211110472679138, -0.07244916260242462, -0.48562735319137573, -0.03721611201763153, -0.061019416898489, 0.13014274835586548, -0.005831991322338581, -0.01703530363738537, 0.009885483421385288, 0.030661161988973618, -0.13152194023132324, -0.07756329327821732, 0.043727319687604904, -0.2541483938694, 0.03232717514038086, 0.1167396828532219, -0.19693523645401, -0.2973393201828003, -0.2657352685928345, -0.33055078983306885, -0.026271210983395576, -0.2498708963394165, -0.23133789002895355, -0.2694869041442871, -0.44416549801826477, -0.041317861527204514, 0.05536205694079399, -0.3658829629421234, -0.048300180584192276, 0.007825919426977634, -0.04815123230218887, -0.18857461214065552, -0.22527119517326355, -0.31190046668052673, 0.06537739932537079, 0.027902355417609215, -0.05859110876917839, 0.11028987914323807, 0.048501212149858475, -0.04017376899719238, -0.0857957974076271, 0.051350973546504974, 0.10955455899238586, 0.09036903828382492, 0.0036266352981328964, -0.31131815910339355, 0.012827017344534397, 0.0629989504814148, 0.17036761343479156, -0.3486986756324768, 0.0939079001545906, 0.07948040962219238, -0.47570499777793884, -0.09002924710512161, -0.359262079000473, 0.11117874085903168, 0.14482852816581726, 0.012451480142772198, -0.3671909272670746, 0.12578557431697845, -0.11189041286706924, -0.28005290031433105, -0.014780145138502121, -0.14592216908931732, -0.050637099891901016, -0.2529589831829071, -0.06570116430521011, -0.20148834586143494, -0.3126228153705597, -0.10280989855527878, -0.20228227972984314, -0.3151150941848755, -0.1049104779958725, 0.0015108406078070402, -0.11376907676458359, 0.05654684454202652, -0.14063817262649536, -0.07195784151554108, -0.042869336903095245, -0.4333154857158661, 0.012637952342629433, -0.022444767877459526, -0.5639833211898804, -0.02849281020462513, -0.15577028691768646, -0.4111618995666504, -0.03756217658519745, -0.0686265379190445, -0.0738004669547081, 0.10792086273431778, -0.004408726934343576, -0.028647975996136665, -0.04758654907345772, -0.11904172599315643, -0.34778714179992676, 0.012329651974141598, 0.05734571814537048, -0.14864228665828705, -0.3349437713623047, -0.15957985818386078, 0.1476762741804123, -0.047266680747270584, -0.48340463638305664, 0.0005838079960085452, -0.4537796676158905, -0.07310469448566437, -0.07639125734567642, 0.06859425455331802, -0.4270132780075073, -0.25405025482177734, -0.1808718740940094, -0.5059428215026855, -0.022581417113542557, -0.13784223794937134], [-0.04466817528009415, -0.41092491149902344, -0.28270965814590454, 0.07503385841846466, -0.04002318158745766, -0.12184267491102219, -0.3507779538631439, -0.036391958594322205, -0.0887424498796463, -0.012878775596618652, -0.3634743392467499, -0.10149069875478745, -0.06389026343822479, -0.0776367112994194, -0.175371915102005, -0.10165611654520035, 0.1078680232167244, -0.05880225449800491, -0.04103407263755798, -0.021776359528303146, 0.06536713242530823, -0.03206540271639824, -0.21781796216964722, -0.27278488874435425, 0.08311133831739426, -0.131211057305336, -0.002969614462926984, 0.033216722309589386, -0.02441493608057499, -0.20938906073570251, -0.4452786445617676, -0.031572021543979645, -0.07917433977127075, 0.10139602422714233, -0.13460496068000793, -0.5836360454559326, 0.1469373255968094, -0.07045076787471771, -0.028052281588315964, -0.061622221022844315, -0.027667611837387085, -0.3246380686759949, -0.25711992383003235, 0.050120506435632706, -0.12660320103168488, -0.22752490639686584, -0.047823697328567505, 0.06780491769313812, -0.04366440325975418, -0.1917751282453537, 0.037849098443984985, 0.02427010051906109, 0.052979469299316406, 0.22762152552604675, -0.23181766271591187, -0.038515523076057434, -0.10472947359085083, 0.112638920545578, -0.12369629740715027, -0.038061462342739105, 0.04884418100118637, 0.1897439956665039, -0.2232440561056137, 0.0344458743929863, 0.043634429574012756, -0.5268660187721252, -0.27695488929748535, -0.12303081154823303, -0.26986411213874817, 0.1602461338043213, 0.12852995097637177, 0.21934713423252106, -0.017784588038921356, -0.18649055063724518, 0.025154899805784225, -0.062492888420820236, -0.0695575624704361, 0.01941808871924877, -0.08267641812562943, 0.18628011643886566, 0.05104755982756615, -0.027851806953549385, -1.1828169590444304e-05, -0.35304713249206543, -0.090733103454113, -0.002447813982143998, -0.07001155614852905, -0.1382032334804535, -0.24955719709396362, -0.04409109428524971, -0.07607995718717575, -0.04327741637825966, -0.3833756446838379, -0.0634973794221878, -0.01275129895657301, 0.03222113475203514, -0.2576753497123718, 0.0438137911260128, -0.03534567356109619, -0.10428238660097122, -0.07165046781301498, -0.041932910680770874, -0.3517097532749176, -0.0717710554599762, -0.12339794635772705, -0.02674632892012596, -0.06766276061534882, -0.30884894728660583, 0.05780763179063797, -0.24404078722000122, -0.36703744530677795, -0.0037981546483933926, 0.14750826358795166, 0.02620200626552105, -0.08142224699258804, 0.23805035650730133, -0.178152397274971, -0.049413613975048065, -0.47034144401550293, -0.18338485062122345, -0.1290842592716217, 0.062958724796772, -0.19352789223194122, -0.25760504603385925, -0.06564497202634811, 0.03492214158177376, -0.10574884712696075, -0.09673429280519485, -0.05535178631544113, 0.010100002400577068, -0.05529648810625076, -0.11953489482402802, -0.09054868668317795, -0.2780333459377289, 0.14921623468399048, -0.017323514446616173, -0.08522208780050278, 0.04599617049098015, 0.03980181738734245, -0.06711527705192566, -0.011352594941854477, -0.23372632265090942, 0.0743216872215271, 3.725369606399909e-05, 0.23020105063915253, -0.0583951510488987, -0.04311029613018036, -0.07915098965167999, 0.051249098032712936, 0.14363540709018707, 0.016405779868364334, -0.09500625729560852, -0.02984100580215454, 0.13121341168880463, -0.3693822920322418, 0.21955791115760803, 0.03247931972146034, -0.15592795610427856, -0.057811345905065536, 0.0801936462521553, -0.3758879601955414, -0.11543817818164825, 0.022037923336029053, -0.42130300402641296, -0.2865598201751709, 0.1882036030292511, 0.1419162154197693, -0.3364909589290619, -0.15523557364940643, -0.005168775096535683, 0.16243119537830353, -0.003098689951002598, 0.04579206556081772, 0.0044027515687048435, 0.0450756698846817, 0.07425164431333542, -0.006678497884422541, -0.37690845131874084, -0.04664277657866478, -0.44444385170936584, -0.14106513559818268, -0.017437826842069626, -0.058484166860580444, -0.2811959981918335, -0.38072332739830017, -0.47971078753471375, 0.0011435816995799541, 0.051256850361824036, -0.0338565967977047, -0.2859099507331848, -0.32687026262283325, 0.11421973258256912, -0.12972472608089447, 0.06657753139734268, 0.02869047224521637, -0.03792893514037132, -0.01644638553261757, -0.01806643232703209, -0.0969596728682518, -0.044951941817998886, 0.07916011661291122, -0.1055971011519432, -0.09408658742904663, -0.14891517162322998, -0.017147179692983627, -0.1180967316031456, -0.036615967750549316, 0.26696309447288513, -0.041142720729112625, 0.10407692939043045, 0.07339780777692795, 0.043328657746315, -0.06734498590230942, 0.10835602879524231, 0.19005310535430908, -0.06482190638780594, -0.5252473950386047, -0.48206865787506104, -0.03511751443147659, -0.005230382550507784, -0.02543451450765133, -0.015847032889723778, -0.4752761423587799, -0.003595758927986026, -0.1750582754611969, 0.0015159179456532001, -0.14957982301712036, -0.34457409381866455, 0.004817747976630926, -0.15315739810466766, -0.02810143493115902, -0.06417535245418549, 0.033207133412361145, -0.0022431102115660906, 0.10069624334573746, -0.41597843170166016, 0.1693909466266632, 0.02386295795440674, -0.23923221230506897, 0.1305912733078003, -0.23578590154647827, 0.12355771660804749, -0.2710493803024292, -0.13237588107585907, -0.22836020588874817, 0.021871306002140045, -0.12599314749240875, -0.42623457312583923, -0.09309769421815872, -0.14356151223182678, 0.09229472279548645, 0.17923277616500854, -0.2262815535068512, 0.1527191400527954, -0.010745745152235031, 0.1918211132287979], [-0.17995570600032806, 0.025542723014950752, 0.08193256705999374, -0.5176105499267578, 0.1503085047006607, -0.002881421009078622, 0.16022783517837524, -0.22964829206466675, -0.026689553633332253, 0.09557054191827774, 0.11770863831043243, 0.14792431890964508, -0.20239296555519104, -0.25846096873283386, 0.07777037471532822, 0.002614283002912998, -0.13186074793338776, 0.01929890178143978, 0.00532601960003376, 0.04402019456028938, 0.03916022181510925, -0.013815757818520069, -0.19570472836494446, 0.20875073969364166, -0.16702796518802643, 0.07038921117782593, -0.14492742717266083, 0.015482847578823566, 0.0754384845495224, 0.1735033094882965, -0.24472178518772125, 0.0032013901509344578, -0.0919867753982544, -0.31625527143478394, 0.03411421552300453, -0.010030664503574371, -0.1035882830619812, -0.11221407353878021, 0.16818012297153473, -0.06089485436677933, -0.2926272749900818, -0.24819760024547577, -0.05639562010765076, -0.006503451615571976, -0.1288302093744278, -0.0032798147294670343, -0.05639360845088959, -0.12458399683237076, -0.009483779780566692, -0.22668571770191193, 0.028862476348876953, -0.02566693164408207, 0.012623561546206474, -0.26855817437171936, 0.007698027882725, -0.010308239609003067, 0.021219419315457344, -0.04369901493191719, 0.07591018825769424, 0.023297201842069626, 0.12156599760055542, 0.04759809374809265, -0.20196424424648285, -0.05028637871146202, -0.22872309386730194, -0.06984411180019379, -0.01572638563811779, -0.3183113634586334, -0.2594659626483917, 0.09502287209033966, -0.08743292838335037, -0.21809637546539307, -0.07687437534332275, -0.336140900850296, -0.04422987252473831, -0.10180126130580902, 0.07299073040485382, -0.3548603057861328, -0.09497534483671188, -0.40382400155067444, -0.22192582488059998, -0.0016256687231361866, -0.06365086883306503, -0.31891363859176636, 0.08033721148967743, 0.007738449610769749, -0.06115936487913132, -0.03916679695248604, -0.27203357219696045, -0.03445281460881233, -0.05565091595053673, -0.008726485073566437, -0.46366235613822937, 0.1121876910328865, -0.47629764676094055, 0.012861520051956177, -0.2534361183643341, -0.10180296003818512, -0.044411350041627884, 0.19896796345710754, -0.08264957368373871, 0.038576893508434296, -0.2520255148410797, 0.11257025599479675, -0.07992509752511978, 0.0993720293045044, -0.042944423854351044, 0.08048397302627563, -0.16818419098854065, -0.3078520596027374, -0.39097198843955994, -0.1958308219909668, -0.5620869994163513, -0.10589396208524704, 0.010782212018966675, -0.26066553592681885, 0.057482119649648666, 0.02255951799452305, 0.056630294770002365, 0.009782915934920311, 0.1385471522808075, 0.0396953783929348, -0.10512318462133408, -0.2252708375453949, -0.3783736824989319, -0.18575893342494965, -0.2058672159910202, 0.08614396303892136, 0.0038250412326306105, 0.09415848553180695, 0.14299516379833221, 0.016454298049211502, -0.09954505413770676, -0.20917315781116486, -0.24531611800193787, 0.03628077730536461, 0.03321800380945206, 0.10395444184541702, -0.08080242574214935, -0.12937869131565094, -0.058779824525117874, -0.20710216462612152, 0.09364749491214752, 0.00025256353546865284, -0.2596454918384552, 0.0030820313841104507, 0.01749524287879467, 0.1219441294670105, -0.26407796144485474, 0.051462724804878235, 0.03618583083152771, -0.12919636070728302, -0.1788529008626938, -0.2851112186908722, -0.03648421913385391, -0.10644587129354477, -0.14262054860591888, -0.02141742594540119, -0.22997404634952545, -0.4651830196380615, -0.3936024308204651, -0.4245836138725281, -0.04982053488492966, 0.15744303166866302, -0.00996999628841877, -0.15138301253318787, 0.09054460376501083, 0.09454134851694107, -0.15867410600185394, 0.04515383392572403, -0.013726815581321716, -0.11090637743473053, -0.02200714498758316, -0.24334542453289032, -0.11743943393230438, -0.15255357325077057, -0.054666027426719666, 0.10469114780426025, 0.10772572457790375, 0.029003169387578964, -0.27188774943351746, 0.012792829424142838, -0.0010682487627491355, 0.04812543839216232, 0.03018367476761341, -0.013216878287494183, -0.00310567207634449, -0.14645011723041534, -0.08045093715190887, -0.20571023225784302, -0.1982305943965912, -0.1325058788061142, -0.12000194936990738, -0.22865267097949982, -0.3991006016731262, -0.14288198947906494, 0.09031810611486435, -0.0902756005525589, -0.1997365951538086, 0.0011238068109378219, 0.0581866018474102, -0.047144755721092224, 0.03839518874883652, -0.24463148415088654, -0.11397644132375717, -0.02267480082809925, -0.07140069454908371, -0.2865215241909027, -0.12375707179307938, -0.11667830497026443, -0.13557583093643188, 0.03995869681239128, -0.24151088297367096, 0.020957352593541145, -0.46504348516464233, 0.07321839779615402, -0.31333428621292114, -0.10786308348178864, -0.04763571545481682, -0.1800004541873932, -0.0003928152727894485, -0.4652966856956482, -0.04916398972272873, 0.018676171079277992, -0.5137109756469727, -0.030530402436852455, 0.19079458713531494, -0.449796199798584, 0.04389750584959984, -0.13842365145683289, 0.13229990005493164, -0.049579326063394547, -0.25501471757888794, -0.057228174060583115, 0.0002902831183746457, 0.2082362025976181, -0.20389485359191895, 0.08743767440319061, 0.1138903945684433, -0.05386831611394882, 0.21455495059490204, -0.10523471236228943, -0.41039183735847473, 0.1643507480621338, -0.3451257348060608, -0.07418247312307358, -0.4262286424636841, -0.4653010666370392, -0.12318143993616104, 0.055476561188697815, 0.055710334330797195, -0.1639227420091629, 0.18989905714988708, -0.3829687833786011, -0.09051625430583954, 0.017969481647014618], [-0.04305780678987503, -0.09050193428993225, -0.18761380016803741, 0.08188513666391373, -0.2539920508861542, 0.0004463880613911897, 0.055976685136556625, 0.10263124108314514, -0.0825333446264267, -0.21117405593395233, -0.314581960439682, -0.07219474762678146, 0.12543857097625732, 0.13449686765670776, -0.061971843242645264, -0.03591150790452957, -0.214076966047287, -0.04552977904677391, -0.0410788357257843, -0.05556819960474968, -0.041138578206300735, -0.09628228843212128, 0.06995808333158493, -0.4361962080001831, 0.04287951439619064, -0.10780628770589828, -0.04961434006690979, -0.08537379652261734, -0.007951262407004833, -0.08081912249326706, -0.49045905470848083, -0.06611553579568863, -0.00450864527374506, 0.14463764429092407, 0.03744347020983696, 0.05431855097413063, -0.047798190265893936, 0.03733047842979431, -0.05762874335050583, 0.01580423302948475, 0.1387452334165573, -0.12450291216373444, -0.10432746261358261, -0.02434959076344967, 0.08109515905380249, -0.15175744891166687, -0.029495352879166603, 0.008962364867329597, -0.03355652466416359, -0.43527621030807495, -0.08312197029590607, 0.01897674798965454, -0.2495616227388382, -0.03659367933869362, 0.045290250331163406, -0.017379816621541977, -0.022972578182816505, -0.08890153467655182, -0.08362797647714615, -0.06706373393535614, -0.30624768137931824, -0.28090378642082214, 0.07519690692424774, -0.090018130838871, 0.10129568725824356, 0.14580032229423523, 0.013522989116609097, 0.03321662172675133, 0.14623430371284485, -0.34494179487228394, -0.10708978772163391, -0.15906305611133575, -0.09608057886362076, -0.330959290266037, -0.04531824216246605, 0.05082543566823006, -0.46367985010147095, 0.07105094194412231, 0.04110075160861015, -0.27820664644241333, 0.10316459089517593, -0.05037015303969383, -0.05998449772596359, -0.11660239100456238, -0.20234140753746033, 0.0053142160177230835, 0.005863896571099758, -0.006861732341349125, 0.11742056161165237, -0.037739839404821396, -0.03435065224766731, -0.07702146470546722, 0.05659015476703644, -0.12365461885929108, 0.10747047513723373, -0.12110993266105652, 0.1872248351573944, 0.10931596904993057, -0.025123704224824905, -0.14376300573349, 0.01154332421720028, -0.4152034521102905, 0.14366815984249115, -0.25845134258270264, 0.023126613348722458, -0.011548741720616817, 0.1006074771285057, -0.2267315536737442, -0.020017370581626892, -0.10189694911241531, 0.19123627245426178, 0.032148439437150955, 0.05736590549349785, 0.043119657784700394, -0.07765600830316544, -0.10810545831918716, -0.048832736909389496, -0.0436968095600605, -0.07517804950475693, -0.09474023431539536, -0.06589731574058533, 0.09449159353971481, 0.06988806277513504, 0.17324838042259216, 0.030968839302659035, 0.06829270720481873, -0.18884210288524628, -0.00410557771101594, -0.031167160719633102, -0.13445666432380676, -0.13159216940402985, 0.004864874761551619, 0.15701089799404144, -0.4474804103374481, 0.018840309232473373, -0.24093514680862427, -0.021808216348290443, -0.24773035943508148, 0.09054069221019745, 0.10734093189239502, -0.05394044890999794, -0.2952142655849457, -0.350216805934906, -0.018316615372896194, -0.1743057668209076, -0.020690781995654106, 0.017531652003526688, -0.41321223974227905, 0.04263138025999069, -0.3417209982872009, 0.02614009380340576, 0.094436876475811, 0.04964081570506096, 0.044762060046195984, 0.05111199989914894, -0.22165024280548096, -0.07385074347257614, -0.3441084921360016, 0.08595254272222519, 0.062054283916950226, 0.2321109026670456, 0.16614563763141632, 0.0676424652338028, -0.34981223940849304, 0.12763240933418274, -0.3975323438644409, -0.12605175375938416, 0.06817709654569626, 0.06458944827318192, 0.0798589363694191, -0.7012450098991394, -0.04265524074435234, 0.009988252073526382, 0.08029567450284958, 0.016388189047574997, 0.06309055536985397, -0.23922225832939148, -0.11840061098337173, -0.06129458174109459, -0.4248528778553009, 0.051561612635850906, 0.011984813958406448, 0.054211776703596115, -0.1287376433610916, -0.46307075023651123, -0.37057462334632874, -0.031724873930215836, 0.0066519142128527164, -0.02866942062973976, -0.010700256563723087, -0.0857994332909584, 0.07849321514368057, 0.0043204729445278645, -0.07293583452701569, 0.07630287110805511, 0.10268504172563553, 0.06338479369878769, -0.25326940417289734, -0.2072654366493225, -0.09927156567573547, 0.0075920927338302135, -0.11942876130342484, -0.023491270840168, 0.12988069653511047, -0.00785094778984785, 0.06456078588962555, -0.05301132798194885, -0.2292669266462326, -0.05865912139415741, 0.10079430043697357, 0.10055407881736755, -0.047141704708337784, 0.18322227895259857, 0.013774060644209385, -0.07613372057676315, -0.22161681950092316, 0.14088977873325348, 0.0319606252014637, -0.057182446122169495, -0.00010903726069955155, -0.033021632581949234, 0.14367423951625824, -0.009839211590588093, 0.010220210999250412, 0.12424672394990921, -0.11257302016019821, -0.2579350769519806, 0.11248022317886353, -0.09591976553201675, 0.09051123261451721, -0.4019883871078491, -0.16429336369037628, -0.02132021263241768, -0.043463245034217834, -0.021071210503578186, -0.5216971039772034, -0.11788424104452133, -0.08570830523967743, -0.37896835803985596, -0.42014625668525696, -0.3313683271408081, -0.0816802829504013, -0.4160909056663513, -0.3759371340274811, 0.20096199214458466, -0.006687594577670097, 0.1556592434644699, 0.13422103226184845, 0.10912764072418213, -0.2488088309764862, 0.02458859421312809, -0.09910064935684204, -0.25733691453933716, 0.09370145201683044, -0.001975076738744974, -0.37923717498779297]], [[0.007276661694049835, 0.020540768280625343, 0.030622508376836777, 0.09265046566724777, -0.13784891366958618, -0.4403313100337982, -0.048274219036102295, -0.10118814557790756, 0.006491730455309153, -0.5179086327552795, -0.1534983068704605, -0.07989004999399185, -0.11933177709579468, -0.1273447573184967, -0.01084133144468069, -0.030049744993448257, 0.07817160338163376, -0.07755223661661148, 0.06504588574171066, -0.0837130919098854, -0.09129079431295395, 0.010402482934296131, -0.09929125010967255, 0.05383588373661041, -0.025119932368397713, -0.4478317201137543, 0.006645658053457737, 0.017187219113111496, -0.4073927402496338, 0.07555560767650604, 0.09857673197984695, -0.021628830581903458, 0.0644405409693718, 0.1680922657251358, 0.021063311025500298, -0.46820068359375, -0.23561690747737885, -0.1249624639749527, -0.0012037758715450764, -0.07298258692026138, 0.13241930305957794, -0.03280450031161308, 0.12113393843173981, -0.1882026344537735, -0.25156551599502563, -0.293739914894104, -0.03828494995832443, 0.09113408625125885, -0.035672709345817566, 0.10533729940652847, -0.1831289827823639, -0.15368524193763733, -0.04858895391225815, 0.034901220351457596, 0.03389333561062813, -0.0411086343228817, 0.07255131006240845, -0.1032407209277153, 0.052298955619335175, 0.013750026002526283, 0.12605777382850647, -0.14212749898433685, 0.07016696035861969, 0.0613139271736145, 0.14425265789031982, -0.35978811979293823, -0.1769533008337021, -0.2280300259590149, -0.18660442531108856, -0.21752095222473145, -0.16857962310314178, -0.2207711786031723, -0.11352299898862839, -0.4041953384876251, -0.0796021893620491, 0.006951003335416317, -0.5291519165039062, 0.13282173871994019, 0.029955321922898293, -0.31249508261680603, -0.24107050895690918, -0.05008898675441742, -0.015567501075565815, 0.007625425234436989, 0.013943767175078392, -0.013955583795905113, -0.025224490091204643, -0.04953979328274727, 0.10976142436265945, -0.00541318254545331, -0.03749402239918709, 0.007610981352627277, -0.1820458620786667, -0.052593424916267395, 0.11978887766599655, -0.40355515480041504, -0.3931830823421478, -0.35481271147727966, -0.044395290315151215, -0.25963038206100464, -0.20043127238750458, -0.045747749507427216, 0.14842085540294647, -0.027451060712337494, -0.1063103899359703, -0.2608839273452759, -0.16140830516815186, -0.3147502839565277, 0.09892681986093521, 0.025101445615291595, 0.14586153626441956, -0.35546717047691345, -0.08939404785633087, -0.03281508386135101, -0.24169741570949554, 0.1427740603685379, -0.08455035090446472, 0.00828144233673811, -0.10833185166120529, -0.13596057891845703, 0.10406939685344696, -0.06280041486024857, 0.0058403401635587215, 0.053072478622198105, -0.10302074998617172, -0.10389558225870132, -0.015189629048109055, -0.0633646622300148, -0.08874990046024323, -0.029326848685741425, -0.0077049098908901215, 0.046980489045381546, -0.25624358654022217, -0.13869084417819977, -0.3398756980895996, -0.07710544764995575, -0.07331552356481552, -0.40659409761428833, -0.007471431512385607, -0.27609121799468994, -0.43823477625846863, -0.07135801762342453, 0.11905789375305176, 0.0026539182290434837, 0.1423601508140564, -0.004379192367196083, -0.0012790659675374627, 0.1416545808315277, -0.016805950552225113, 0.011173500679433346, -0.05779195949435234, -0.37145477533340454, -0.11626357585191727, -0.46299561858177185, -0.047592081129550934, -0.2337389588356018, 0.03538903594017029, -0.03352222591638565, -0.3556855022907257, 0.08788590133190155, 0.20904424786567688, -0.39854469895362854, 0.05098164081573486, -0.2868609130382538, -0.19190369546413422, -0.13800278306007385, -0.03203457593917847, -0.4146476089954376, 0.11795186996459961, 0.009844435378909111, -0.22128801047801971, -0.04500853642821312, -0.20595824718475342, 0.03410983085632324, -0.44911131262779236, -0.48833611607551575, -0.09234248846769333, -0.028023093938827515, -0.24491213262081146, -0.09626810997724533, -0.20970512926578522, 0.09528898447751999, 0.0017961616395041347, -0.17661358416080475, 0.1219872385263443, 0.040149230509996414, 0.002822525566443801, -0.008460888639092445, 0.004765223246067762, -0.04626793414354324, 0.05169343575835228, 0.02197899855673313, 0.06806262582540512, 0.003510290291160345, 0.1493532806634903, -0.06375875324010849, -0.0082738371565938, 0.15653663873672485, 0.10412830114364624, -0.09569479525089264, 0.011854633688926697, 0.0168828833848238, -0.23145714402198792, -0.1313195675611496, -0.4204104244709015, 0.06680696457624435, -0.035515543073415756, 0.13821783661842346, -0.11755158752202988, 0.14019423723220825, -0.2726873755455017, -0.07420425862073898, 0.12963490188121796, 0.016677308827638626, -0.007805075030773878, 0.11571243405342102, -0.15731017291545868, -0.07404367625713348, 0.0637386292219162, -0.4423907697200775, -0.026806890964508057, 0.00020383654918987304, -0.09390496462583542, 0.14587625861167908, -0.47835609316825867, -0.017345476895570755, -0.37167149782180786, 0.24797898530960083, -0.0919877216219902, 0.06439176201820374, 0.1075286716222763, -0.21105806529521942, -0.26600539684295654, -0.025576099753379822, 0.04057430848479271, -0.20453615486621857, -0.3211723268032074, -0.1906997263431549, -0.1998441368341446, 0.04721958935260773, 0.13560429215431213, -0.1905677318572998, -0.4627644121646881, 0.14355988800525665, 0.16057409346103668, -0.3212307393550873, -0.030744515359401703, 0.13264335691928864, -0.19697988033294678, -0.001414995058439672, -0.37365931272506714, -0.1528962254524231, 0.0603783093392849, -0.4283430874347687, -0.22604472935199738, -0.009879594668745995], [-0.37667572498321533, 0.014284666627645493, -0.42263320088386536, -0.43607473373413086, 0.13305163383483887, 0.07032805681228638, 0.20482714474201202, -0.36318641901016235, -0.0036245554219931364, -0.24497584998607635, 0.030588263645768166, 0.006999342702329159, -0.03195810317993164, -0.23540279269218445, 0.016926856711506844, -0.06570294499397278, -0.3254304528236389, -0.00813695602118969, 0.093695729970932, -0.023174574598670006, -0.14791090786457062, -0.019023634493350983, -0.04549083858728409, -0.5942274928092957, -0.15446963906288147, 0.025172878056764603, -0.03889446705579758, -0.04673471674323082, 0.014305271208286285, -0.04241601750254631, 0.08525227755308151, -0.09938549250364304, -0.0316450335085392, -0.3084871470928192, 0.03865441679954529, 0.19058074057102203, -0.4277069866657257, 0.08481448888778687, -0.3531765937805176, -0.026471247896552086, -0.24477511644363403, 0.049767207354307175, -0.04933228716254234, 0.10979806631803513, 0.08506279438734055, 0.011365917511284351, 0.005800239741802216, -0.2034083902835846, 0.02278706803917885, 0.09176123142242432, 0.10443393141031265, 0.16409850120544434, 0.10423175245523453, -0.4700064957141876, -0.43098974227905273, 0.004562474321573973, -0.3312559723854065, 0.20663245022296906, -0.11450547724962234, -0.08517517149448395, -0.18054230511188507, -0.07249920070171356, -0.05946776270866394, -0.2706891894340515, -0.577229380607605, 0.2490307241678238, -0.04338796064257622, -0.23377621173858643, -0.09129448980093002, 0.03515388071537018, 0.034363631159067154, -0.3043960630893707, -0.13569429516792297, 0.0655093789100647, 0.014339365065097809, -0.22495129704475403, -0.03966464474797249, -0.25026735663414, -0.056265272200107574, -0.2309652715921402, -0.26593753695487976, 0.0261449683457613, -0.054087478667497635, -0.05273323506116867, 0.06892488151788712, -0.129262313246727, -0.027844436466693878, -0.019240733236074448, -0.2344249039888382, 0.03729827702045441, -0.007644071709364653, 0.034590765833854675, -0.17914028465747833, -0.06316499412059784, -0.41816964745521545, -0.3944495916366577, 0.21836845576763153, -0.24698098003864288, -0.028186721727252007, -0.15663312375545502, 0.08207210898399353, -0.059292204678058624, -0.14822207391262054, -0.16191717982292175, -0.3571130335330963, -0.29643934965133667, -0.09825120866298676, 0.19135552644729614, 0.03778279572725296, -0.08589959144592285, -0.28676638007164, 0.11459146440029144, 0.21100464463233948, 0.08389003574848175, 0.07079080492258072, -0.2506246268749237, -0.05646134912967682, -0.0119031285867095, 0.06951890885829926, 0.1326305866241455, -0.08760514110326767, -0.07378607243299484, -0.05897504463791847, 0.1264357566833496, -0.28563910722732544, -0.044613659381866455, -0.21373729407787323, -0.04670612886548042, -0.0785289779305458, 0.022257335484027863, -0.1330733299255371, -0.4608653485774994, 0.1642048954963684, -0.016051890328526497, -0.0876859575510025, 3.348824247950688e-05, 0.15426161885261536, 0.18221595883369446, 0.13700005412101746, 0.17530600726604462, 0.012224537320435047, -0.002091553993523121, 0.03484693542122841, -0.0799601674079895, -0.06837674975395203, 0.02460302971303463, -0.04970812797546387, -0.4043668508529663, -0.07946030050516129, -0.16365191340446472, -0.00968265626579523, 0.12954531610012054, -0.13074596226215363, -0.2838045656681061, -0.35804280638694763, -0.4202737510204315, -0.1462564766407013, -0.12337273359298706, 0.028684532269835472, -0.34618598222732544, -0.3035597503185272, 0.03179425746202469, -0.1561882346868515, -0.38618203997612, 0.06070690602064133, -0.21261847019195557, 0.039932362735271454, 0.2147226780653, 0.020385105162858963, 0.1672372668981552, -0.2764331102371216, -0.03451300784945488, 0.08111879229545593, -0.35148194432258606, 0.14966201782226562, 0.016100890934467316, -0.07763660699129105, -0.06371299177408218, 0.15565137565135956, 0.1108001247048378, 0.07191354036331177, 0.03197987750172615, 0.03192717581987381, -0.026432989165186882, -0.513275146484375, -0.19832083582878113, -0.06165613606572151, 0.13876593112945557, -0.08019216358661652, -0.4716778099536896, -0.3881177604198456, -0.249811589717865, -0.35261744260787964, -0.14991307258605957, -0.38446852564811707, 0.135419100522995, 0.09655459225177765, -0.15056008100509644, -0.1286623328924179, -0.0021912921220064163, -0.07686333358287811, -0.4572862684726715, -0.13035427033901215, -0.022126412019133568, -0.07201020419597626, -0.19842524826526642, 0.033068232238292694, -0.27519649267196655, -0.08956227451562881, -0.3039594888687134, 0.1995552033185959, -0.03590383008122444, -0.38449519872665405, 0.06955967843532562, -0.24570895731449127, -0.2756689786911011, -0.3261277377605438, 0.014031478203833103, -0.048310574144124985, 0.1550537794828415, 0.00916350819170475, -0.42388567328453064, 0.09452115744352341, -0.41305577754974365, -0.15816020965576172, -0.036368001252412796, -0.09449639916419983, -0.3077714443206787, 0.1106748953461647, -0.15031662583351135, -0.25003570318222046, -8.403787069255486e-05, -0.12333947420120239, -0.03141256421804428, -0.44950369000434875, 0.1050293818116188, 0.05200698971748352, -0.21048608422279358, -0.12221141159534454, 0.07048875093460083, -0.3331042528152466, 0.26952314376831055, 0.11624465882778168, -0.276151180267334, -0.10662460327148438, 0.03335098549723625, -0.09308353066444397, -0.00871034525334835, 0.0964430645108223, -0.2127193957567215, -0.017634311690926552, 0.1722525805234909, 0.11378902196884155, -0.37149688601493835, 0.10810220241546631, -0.1820608526468277], [-0.267348051071167, 0.11725060641765594, -0.09818995743989944, 0.08582305163145065, -0.28715530037879944, -0.009820394217967987, -0.17363236844539642, 0.17277617752552032, -0.036353275179862976, -0.4936941862106323, -0.5316566824913025, -0.0679459422826767, 0.19759820401668549, -0.47090253233909607, 0.0740177258849144, 0.018880195915699005, 0.06668895483016968, 0.03525911644101143, -0.08800758421421051, -0.017316725105047226, 0.09713372588157654, -0.03594956547021866, 0.061208296567201614, -0.4650937020778656, 0.17485585808753967, -0.447358101606369, -9.124018833972514e-05, -0.042424920946359634, -0.4081781208515167, -0.14297357201576233, -0.4777272939682007, -0.024550821632146835, -0.06073063984513283, -0.3504543602466583, 0.08995508402585983, -0.07089897245168686, -0.2369350641965866, -0.08297295868396759, 0.14580875635147095, 0.022981993854045868, 0.12281157821416855, 0.07628308981657028, -0.07183821499347687, -0.3145667016506195, 0.08229751139879227, -0.22070077061653137, -0.07129104435443878, -0.058633748441934586, -0.03570942580699921, -0.27824291586875916, -0.034596726298332214, -0.11623082309961319, -0.14591197669506073, 0.1497727930545807, 0.062164556235075, -0.04881184548139572, 0.10565195977687836, -0.21809662878513336, -0.018235059455037117, -0.03843861445784569, -0.08519579470157623, 0.02980123460292816, -0.21138182282447815, 0.09853959828615189, -0.11095063388347626, -0.3679260313510895, -0.018776588141918182, -0.056103527545928955, -0.15280354022979736, -0.166253924369812, 0.19693517684936523, 0.146065354347229, -0.04360286891460419, 0.0815884992480278, -0.027701830491423607, 0.12962369620800018, -0.4454030394554138, -0.1918381303548813, -0.046094439923763275, 0.19790767133235931, -0.15424761176109314, -0.05124843120574951, -0.08611069619655609, -0.2910834550857544, -0.0893530398607254, -0.013530019670724869, -0.016687685623764992, -0.03782600536942482, 0.07734353840351105, 0.01776716858148575, 0.01604287140071392, -0.020288802683353424, 0.08390549570322037, 0.11189381033182144, -0.26490074396133423, -0.4273819327354431, -0.3132929503917694, 0.17997191846370697, -0.01668105646967888, -0.2482089400291443, -0.29712340235710144, -0.2619988024234772, -0.09719496220350266, 0.02817058190703392, -0.4239223897457123, -0.4226783514022827, 0.1739087998867035, -0.0725376158952713, 0.07283693552017212, -0.34588006138801575, 0.03412342816591263, -0.13676317036151886, -0.17863161861896515, 0.10747354477643967, 0.12093591690063477, 0.03516392409801483, 0.07708293199539185, -0.019074803218245506, -0.07563187181949615, 0.022262034937739372, -0.005713386926800013, 0.047438982874155045, -0.05765386298298836, -0.3468683958053589, -0.2899490296840668, -0.04496816173195839, -0.04427099972963333, 0.005257033742964268, -0.0641045793890953, -0.1522376984357834, -0.18110321462154388, 0.13586820662021637, -0.13640838861465454, 0.10418601334095001, -0.2575508952140808, 0.16293102502822876, -0.06421732902526855, -0.09760595113039017, -0.16456303000450134, -0.35706213116645813, -0.10196565836668015, 0.16453395783901215, -0.3752966821193695, -0.016829585656523705, -0.45554330945014954, 0.010183765552937984, 0.0005443593836389482, -0.13462279736995697, -0.06634099781513214, -0.3513527512550354, -0.014547142200171947, 0.012521526776254177, -0.34660595655441284, -0.4587787389755249, -0.374774694442749, 0.22507520020008087, 0.09868673235177994, -0.014657548628747463, -0.19745109975337982, 0.01931264065206051, -0.042000964283943176, -0.2949753403663635, 0.03768131881952286, -0.40322789549827576, 0.015016988851130009, 0.05587490648031235, 0.01544363796710968, -0.3903707265853882, -0.07418499886989594, -0.21210099756717682, 0.23183396458625793, -0.019067129120230675, 0.06701858341693878, -0.2712825536727905, -0.5040340423583984, -0.2073124200105667, 0.0789201408624649, 0.1571294516324997, 0.023472826927900314, 0.10887070000171661, -0.4407179057598114, -0.0764307826757431, 0.06373415142297745, -0.06816687434911728, -0.03972794860601425, 0.08540099114179611, -0.005314566660672426, 0.0031632641330361366, -0.052601881325244904, -0.31118589639663696, -0.17068713903427124, 0.10772238671779633, -0.011685618199408054, 0.1162877008318901, 0.062684066593647, -0.06447310000658035, 0.05197012424468994, -0.18967083096504211, -0.028437839820981026, -0.005549376364797354, 0.07599663734436035, -0.14232800900936127, -0.08476236462593079, -0.12494166195392609, -0.2764165699481964, 0.07464978098869324, 0.03825222700834274, 0.04951942339539528, 0.039389804005622864, 0.00393535103648901, -0.22606739401817322, -0.023970454931259155, -0.48179879784584045, -0.34233370423316956, 0.13868683576583862, -0.003788467263802886, -0.5269601345062256, 0.1679806411266327, -0.05012073367834091, -0.43030449748039246, -0.03157530725002289, 0.0172717422246933, -0.2324203997850418, -0.09282899647951126, 0.18724673986434937, -0.014056197367608547, 0.18880605697631836, -0.24787454307079315, -0.1723654568195343, -0.06414907425642014, -0.2857954502105713, 0.12773098051548004, -0.4035753011703491, 0.02275146171450615, -0.34932199120521545, 0.0735783502459526, 0.09317205846309662, 0.18920943140983582, -0.22032156586647034, -0.16824299097061157, 0.04601643234491348, -0.34395095705986023, 0.07375959306955338, -0.06554458290338516, -0.39165788888931274, -0.3502050042152405, -0.09461671113967896, -0.17393822968006134, -0.0588403195142746, -0.09826191514730453, -0.0918252170085907, -0.12449339032173157, -0.07844039052724838, -0.3856533467769623, -0.4185304641723633, -0.22820843756198883], [0.06674542278051376, -0.4304973781108856, 0.01583229936659336, -0.19236205518245697, 0.023163974285125732, -0.0013119265204295516, -0.29316285252571106, -0.16938573122024536, -0.049762193113565445, 0.12338889390230179, 0.08909133821725845, -0.04674747958779335, -0.21003738045692444, 0.14892764389514923, -0.3216245472431183, 0.006301935762166977, -0.055943846702575684, -0.028667734935879707, -0.09161218255758286, 0.0249641053378582, -0.010000157169997692, -0.008603967726230621, -0.06190717965364456, -0.020818814635276794, -0.28690019249916077, 0.14814142882823944, -0.07009679824113846, -0.04303276911377907, 0.09429417550563812, -0.0355977825820446, -0.3240295350551605, -0.014614471234381199, -0.07941414415836334, -0.14388205111026764, -0.13779138028621674, -0.4317939579486847, 0.08828331530094147, -0.013843151740729809, -0.1856134682893753, 0.0185425765812397, -0.36062246561050415, -0.1458768993616104, -0.14576144516468048, 0.07043235003948212, -0.10960854589939117, 0.11001002788543701, -0.08547697961330414, -0.02881847321987152, -0.05494570732116699, -0.22187566757202148, 0.02488590031862259, -0.05659469962120056, -0.251660019159317, -0.22518518567085266, -0.444015234708786, 0.007177129853516817, -0.03191215172410011, -0.18349625170230865, -0.07921798527240753, -0.041920263320207596, -0.15679806470870972, -0.06216706335544586, -0.07867785543203354, -0.34937843680381775, -0.14625898003578186, -0.0947895497083664, 0.07989758998155594, 0.09173066914081573, 0.15323787927627563, 0.10495418310165405, -0.23592551052570343, 0.03595982491970062, 0.0038230440113693476, -0.3318727910518646, 0.006099623162299395, -0.022991225123405457, 0.17305688560009003, 0.05314187332987785, -0.039990801364183426, -0.07490957528352737, 0.13106895983219147, -0.019990330561995506, 0.03978939354419708, 0.03999674692749977, -0.29043933749198914, -0.09570848196744919, -0.008884645067155361, -0.02326992340385914, -0.20600329339504242, -0.03630397096276283, 0.03737182915210724, -0.4992367923259735, 0.09049145877361298, -0.06944568455219269, -0.04430635645985603, 0.11793875694274902, -0.2826531231403351, -0.2625988721847534, -0.02712083049118519, 0.1468103677034378, 0.10300993174314499, 0.10179860889911652, -0.3991929888725281, -0.07591268420219421, 0.16537582874298096, 0.15542559325695038, -0.3871973752975464, -0.26760557293891907, -0.3264123201370239, 0.019345905631780624, -0.4459601640701294, -0.3971506953239441, -0.4899912476539612, -0.09029854834079742, -0.20153969526290894, -0.2987235486507416, -0.017647305503487587, -0.028028292581439018, 0.018429260700941086, -0.11174958199262619, -0.2235938012599945, -0.06998863071203232, -0.037659287452697754, -0.4125833809375763, 0.15544235706329346, 0.03408380597829819, 0.04315370321273804, -0.08104727417230606, -0.03065422736108303, 0.03469810262322426, 0.03795887529850006, -0.21963652968406677, 0.0005640091258101165, -0.19151006639003754, 0.11187170445919037, -0.2900867164134979, -0.4754314422607422, -0.4416925609111786, -0.03747321292757988, -0.4354389011859894, 0.13727222383022308, -0.16091206669807434, -0.4131825566291809, -0.007875408045947552, -0.24155095219612122, -0.024850040674209595, -0.015505097806453705, -0.0505034364759922, -0.09734421968460083, 0.09459682554006577, -0.013340973295271397, -0.05571163073182106, 0.11537984013557434, 0.17925609648227692, 0.09014760702848434, -0.11825629323720932, -0.11295782774686813, -0.004962334409356117, 0.07953760772943497, -0.30330443382263184, -0.40290579199790955, 0.17825943231582642, -0.07093050330877304, 0.1977842152118683, 0.05146545171737671, 0.11195297539234161, -0.5404887199401855, -0.025629064068198204, -0.3017454147338867, -0.2829495370388031, -0.3366934657096863, -0.07111188024282455, -0.2220035344362259, 0.1127488911151886, 0.03291741758584976, 0.1142834946513176, -0.03457487002015114, -0.0482901930809021, -0.06947575509548187, -0.1771732121706009, 0.09363922476768494, -0.06450635939836502, -0.13322904706001282, 0.14924883842468262, -0.08205894380807877, -0.24463650584220886, 0.004236774053424597, -0.27014368772506714, 0.015340852551162243, 0.10145445913076401, 0.06515014916658401, -0.2556162476539612, -0.04568051919341087, -0.04683292657136917, -0.3189408779144287, -0.2834491729736328, -0.5066975951194763, -0.09447937458753586, -0.10715039819478989, -0.07408997416496277, -0.23486369848251343, 0.06097807362675667, 0.11206149309873581, 0.10576241463422775, 0.2084709107875824, -0.08779692649841309, -0.02590697444975376, -0.3508775532245636, -0.07255591452121735, -0.2728157937526703, -0.2445613443851471, -0.007321210112422705, -0.273774117231369, -0.11500997841358185, -0.48697763681411743, -0.07909122854471207, 0.15366895496845245, -0.1653309315443039, -0.0771414265036583, -0.013359514996409416, -0.020853957161307335, -0.06843850761651993, 0.041289348155260086, -0.4137525260448456, -0.3694795072078705, -0.09752162545919418, -0.22531215846538544, -0.2767345607280731, 0.012450129725039005, 0.0252603180706501, -0.09998326748609543, -0.13424251973628998, 0.14913977682590485, 0.011080531403422356, 0.11206406354904175, -0.3317194879055023, -0.05243508517742157, -0.05842961370944977, 0.08674055337905884, -0.30648359656333923, -0.36280909180641174, -0.28879761695861816, -0.06346042454242706, -0.2144179791212082, -0.4637793004512787, 0.15001128613948822, 0.006179178599268198, -0.16761590540409088, -0.019105421379208565, 0.05511150881648064, 0.1519094705581665, -0.09215272217988968, -0.3626093566417694, 0.16523316502571106, 0.07654685527086258, 0.09256160259246826]], [[0.09878326952457428, 0.022109385579824448, 0.14512962102890015, -0.41942456364631653, -0.17572079598903656, -0.32372593879699707, -0.10805298388004303, 0.09524299949407578, -0.07230713218450546, -0.43373727798461914, 0.061424851417541504, 0.07000119984149933, 0.035664163529872894, -0.3087810277938843, -0.2746918499469757, 0.026789825409650803, -0.346811443567276, -0.02406594343483448, -0.17367178201675415, -0.0628555417060852, -0.00888980831950903, -0.05950263887643814, -0.243734672665596, -0.4544106125831604, -0.02527378685772419, 0.16644378006458282, -0.02232976444065571, -0.3250308036804199, -0.1648189276456833, -0.13421542942523956, -0.4041285514831543, -0.06256462633609772, 0.016240281984210014, -0.08080892264842987, -0.005383374635130167, 0.15137146413326263, 0.07956160604953766, -0.4739743173122406, 0.08998992294073105, -0.06498035043478012, 0.13928371667861938, 0.11667934060096741, 0.10610973834991455, -0.5526174306869507, -0.1973588764667511, 0.04352866858243942, -0.020829061046242714, -0.20825541019439697, -0.03726746886968613, -0.4604455530643463, -0.36804795265197754, -0.3273721933364868, -0.1759425699710846, -0.3765336573123932, -0.03985006734728813, -0.039970070123672485, -0.05356902256608009, -0.048260074108839035, 0.06758791208267212, -0.014552322216331959, 0.09918078780174255, -0.2637062668800354, -0.39231833815574646, 0.16244690120220184, -0.07435788214206696, 0.16250786185264587, -0.082447849214077, -0.12180761247873306, -0.20057670772075653, -0.12994588911533356, 0.11276773363351822, -0.10624171048402786, -0.018746066838502884, -0.09488250315189362, -0.029026174917817116, 0.11705349385738373, 0.14817678928375244, -0.09577742964029312, -0.01780308596789837, 0.0012402685824781656, -0.29272255301475525, -0.059189360588788986, 0.026973284780979156, 0.04041518270969391, 0.13431145250797272, 0.06375229358673096, -0.03282628208398819, 0.043931279331445694, 0.08973460644483566, -0.013290703296661377, -0.04636731371283531, -0.18963071703910828, -0.42964714765548706, -0.11325698345899582, 0.12537270784378052, -0.12474279850721359, 0.051345646381378174, 0.054903555661439896, -0.0013341224985197186, -0.5256350636482239, -0.5390933752059937, -0.3419458270072937, -0.5480470061302185, -0.14057286083698273, -0.27917319536209106, -0.26571065187454224, -0.09924010187387466, 0.16045860946178436, -0.2609556317329407, 0.1768719106912613, 0.12274480611085892, -0.22352957725524902, -0.33209675550460815, 0.0872914120554924, -0.1639668345451355, 0.02004964090883732, -0.07300297915935516, -0.05139332264661789, -0.26826363801956177, -0.3225519359111786, -0.08118700981140137, 0.08712171018123627, 0.11605960875749588, -0.36014294624328613, -0.1121450886130333, -0.10222484171390533, 0.06495934724807739, -0.5028263926506042, -0.05029039829969406, -0.24244558811187744, 0.02304176799952984, -0.009560874663293362, -0.007832484319806099, -0.364852637052536, 0.1392250508069992, 0.1249227523803711, 0.1402818262577057, 0.011271236464381218, -0.0823606327176094, -0.15119723975658417, 0.11237739771604538, 0.03837766498327255, 0.1452321708202362, 0.018742116168141365, -0.5175815224647522, -0.057846151292324066, -0.0602424181997776, -0.05864047631621361, -0.29353320598602295, 0.15449045598506927, -0.04078323394060135, -0.03945932909846306, 0.006682571955025196, 0.2169664204120636, 0.1534210443496704, -0.1236543282866478, 0.11975745111703873, -0.4646308422088623, -0.3756173849105835, -0.09177441149950027, 0.12907977402210236, 0.23114539682865143, 0.10882391035556793, 0.14964528381824493, -0.5453937649726868, -0.31404221057891846, 0.06926686316728592, -0.040092624723911285, 0.003794790478423238, -0.4391893446445465, -0.38293975591659546, -0.14740265905857086, -0.2240285873413086, 0.20985092222690582, -0.5588880181312561, 0.0950523093342781, -0.12338750064373016, -0.16417337954044342, -0.32523113489151, -0.38521164655685425, 0.03398489952087402, 0.06721320003271103, -0.22282858192920685, -0.18366794288158417, 0.1319570243358612, 0.13315334916114807, -0.0012546188663691282, 0.13240234553813934, 0.006052834447473288, -0.22525379061698914, 0.05671649053692818, 0.06692389398813248, -0.4968773424625397, 0.09316297620534897, -0.07353220880031586, -0.1465694010257721, -0.2630470395088196, -0.1954505294561386, 0.06609579175710678, 0.02169652283191681, -0.4551756680011749, 0.07391786575317383, -0.18691067397594452, 0.09248031675815582, -0.05752832815051079, 0.06695251166820526, -0.10224001854658127, -0.41960087418556213, -0.04934171587228775, 0.16900601983070374, -0.07346239686012268, -0.41680243611335754, -0.16812720894813538, -0.13686691224575043, -0.05567444860935211, -0.06962678581476212, -0.4155239462852478, 0.07877165824174881, 0.07166223227977753, -0.5016134977340698, -0.0849681869149208, 0.06947311013936996, -0.3362696170806885, -0.30305957794189453, -0.0008558526169508696, -0.11728216707706451, 0.14508576691150665, 0.1082378551363945, 0.016790103167295456, -0.2212134599685669, -0.0877499058842659, 0.14553193747997284, -0.4931148588657379, -0.06313618272542953, 0.1399511843919754, -0.07391887903213501, -0.05360349267721176, -0.1869150549173355, 0.12639467418193817, 0.14048004150390625, -0.10176309943199158, -0.3374407887458801, 0.053994372487068176, -0.20615267753601074, 0.027187922969460487, -0.40214505791664124, 0.1726912409067154, 0.13103795051574707, 0.0613270029425621, -0.3254755437374115, -0.4801062047481537, 0.03947962075471878, -0.10299023985862732, 0.1859537959098816, -0.3306991755962372, -0.21051529049873352], [-0.08134150505065918, -0.02606220543384552, -0.35990577936172485, -0.022996168583631516, -0.22098129987716675, 0.15277110040187836, 0.07394969463348389, -0.2686055302619934, 0.13683268427848816, -0.10643069446086884, -0.05608293041586876, -0.38985273241996765, -0.2731827199459076, -0.08150233328342438, -0.07970449328422546, -0.05994677543640137, 0.12488426268100739, -0.028403276577591896, -0.14859966933727264, -0.0127147501334548, -0.4658832550048828, 0.005776720587164164, 0.047724783420562744, 0.19345995783805847, 0.09561315178871155, -0.49584779143333435, -0.07821322232484818, 0.07631203532218933, -0.021533837541937828, -0.09519531577825546, 0.07133160531520844, -0.0530707985162735, -0.03706758841872215, 0.054188501089811325, 0.09077978134155273, -0.3838670253753662, -0.2321729212999344, 0.11901430040597916, -0.042076848447322845, 0.014564831741154194, -0.39765992760658264, -0.1529034674167633, 0.05613379925489426, -0.5336363315582275, 0.018405478447675705, -0.4552452564239502, -0.015550839714705944, -0.16666655242443085, -0.008912784978747368, -0.25513511896133423, 0.045548129826784134, 0.2585434317588806, -0.2243223786354065, 0.10093094408512115, -0.46308210492134094, -0.038380954414606094, 0.14452117681503296, -0.004223976284265518, 0.02412022277712822, -0.03980833664536476, -0.1672058254480362, -0.3397633731365204, -0.5664451122283936, -0.16984935104846954, -0.5143591165542603, -0.21719181537628174, -0.3092818558216095, -0.18625518679618835, -0.20789001882076263, 0.043972089886665344, -0.48904579877853394, 0.13573722541332245, 0.0023992310743778944, 0.1449156403541565, 0.0015162205090746284, -0.40572553873062134, -0.36487969756126404, 0.15735997259616852, 0.02547801472246647, 0.07348579168319702, 0.11026687175035477, -0.04702030494809151, -0.023263724520802498, -0.14557303488254547, -0.24135102331638336, -0.5694627165794373, -0.08639536798000336, -0.029836175963282585, -0.5753798484802246, -0.10663601011037827, -0.04113997519016266, -0.20002947747707367, -0.11820024251937866, 0.13872742652893066, -0.3996737599372864, 0.08492455631494522, -0.02919323928654194, -0.1224728599190712, -0.047771502286195755, 0.14093467593193054, -0.5396868586540222, 0.1769721955060959, -0.029243679717183113, -0.1120358407497406, -0.007695183157920837, -0.35648712515830994, -0.10774136334657669, -0.32213470339775085, -0.43130525946617126, -0.35511723160743713, -0.41797760128974915, -0.25720635056495667, -0.08263339102268219, -0.4268413484096527, -0.08738552778959274, -0.004965187981724739, -0.5958009362220764, -0.0753752738237381, -0.09392393380403519, 0.06378242373466492, -0.38677725195884705, -0.39260146021842957, -0.1317344456911087, 0.06315728276968002, -0.013598248362541199, -0.4814690351486206, -0.33870336413383484, 0.07081384211778641, -0.036592695862054825, -0.1279561072587967, -0.19148696959018707, -0.2892148494720459, -0.32164835929870605, 0.014214062131941319, -0.40691670775413513, 0.09412942826747894, -0.17157618701457977, -0.15114758908748627, 0.05717485025525093, -0.013146841898560524, -0.32092127203941345, -0.10227509588003159, -0.3464459180831909, -0.07080256938934326, 0.009945940226316452, -0.031346313655376434, 0.04564584046602249, -0.3015357255935669, -0.034619975835084915, -0.3705833852291107, -0.025373678654432297, -0.7274688482284546, -0.39721807837486267, -0.2805548906326294, -0.3888518810272217, 0.10396702587604523, -0.26010438799858093, 0.028520453721284866, 0.0017870251322165132, 0.08279763162136078, -0.4605448246002197, -0.3604907691478729, -0.16154514253139496, -0.42648404836654663, 0.06837532669305801, -0.01252066157758236, 0.020390596240758896, -0.345936119556427, -0.0801251232624054, -0.4317364990711212, -0.2770087420940399, -0.02914791740477085, 0.1467302143573761, -0.4642968475818634, -0.49145370721817017, -0.5700566172599792, 0.024796804413199425, -0.06234411150217056, 0.22827710211277008, 0.12741558253765106, -0.2783708870410919, -0.16390438377857208, -0.20628304779529572, -0.19885309040546417, -0.3120923340320587, -0.4907147288322449, -0.04807370901107788, -0.270992636680603, -0.024991784244775772, 0.02453879825770855, -0.45102599263191223, -0.01504367683082819, 0.18888795375823975, -0.4351027011871338, 0.021157249808311462, -0.2902125418186188, 0.015173083171248436, 0.07586103677749634, -0.1626211404800415, 0.020469708368182182, 0.11500773578882217, -0.2309083640575409, 0.012846875004470348, -0.5593827962875366, -0.3164341449737549, -0.10377707332372665, -0.024613087996840477, 0.14074459671974182, -0.007211665157228708, -0.3490658402442932, -0.01571590080857277, -0.4115912616252899, 0.24109189212322235, 0.1187378317117691, 0.12443429231643677, 0.10734760761260986, -0.224126935005188, -0.48757684230804443, -0.3119448721408844, -0.44029587507247925, -0.038058362901210785, -0.28531092405319214, 0.15983878076076508, 0.22665756940841675, 0.07937835156917572, 0.030521102249622345, -0.34317928552627563, -0.3874552547931671, -0.2706476151943207, -0.4666283428668976, 0.03257974982261658, -0.05970858037471771, 0.09141191840171814, -0.03275054320693016, -0.3113446831703186, 0.17433108389377594, -0.06514743715524673, -0.06903454661369324, -0.47384434938430786, -0.32294562458992004, 0.02054048515856266, 0.15864908695220947, -0.03765670955181122, -0.08968079835176468, -0.49824127554893494, -0.05922316387295723, -0.23089143633842468, -0.4177604019641876, -0.3537978231906891, 0.11989735811948776, -0.03955354169011116, -0.01592952571809292, 0.12814326584339142, -0.28445369005203247, -0.3488278090953827, -0.03228162229061127], [-0.5013854503631592, -0.1491294801235199, -0.28628236055374146, 0.045830126851797104, 0.14655068516731262, -0.22881560027599335, 0.08888468146324158, -0.10258480906486511, -0.07518750429153442, 0.19389458000659943, -0.08246584981679916, 0.06486982852220535, 0.048020049929618835, -0.2586054503917694, -0.39233487844467163, 0.015743019059300423, -0.204903244972229, -0.006288260221481323, 0.0452556312084198, -0.04925350844860077, -0.3411881625652313, -0.004907972179353237, -0.27052927017211914, -0.2964058816432953, 0.0325065478682518, -0.08603809773921967, -0.11539367586374283, -0.42746272683143616, -0.009934530593454838, 0.20049507915973663, 0.16595260798931122, -0.05680517107248306, -0.010111458599567413, -0.0980607345700264, -0.433385968208313, -0.3975270986557007, 0.04354269430041313, -0.5521965026855469, -0.1182781457901001, -0.06156259402632713, -0.3420508801937103, -0.08190558105707169, -0.35244616866111755, -0.5315393209457397, -0.16460667550563812, 0.02431306801736355, 0.025537343695759773, -0.3592635691165924, 0.015426025725901127, 0.17687702178955078, -0.2704673111438751, 0.030727015808224678, 0.22945916652679443, 0.06087055057287216, 0.04016317427158356, -0.04377644509077072, -0.3127193748950958, -0.16254030168056488, 0.06865392625331879, -0.08180298656225204, -0.21466580033302307, 0.17731350660324097, -0.565283477306366, -0.015040138736367226, 0.10234080255031586, -0.09636197984218597, 0.2519470453262329, -0.06994332373142242, -0.40358203649520874, -0.445080429315567, -0.04269200935959816, -0.06450844556093216, -0.11232200264930725, -0.17124050855636597, -0.013292334042489529, -0.06204228848218918, -0.16871455311775208, 0.012139138765633106, -0.060930170118808746, 0.03745787963271141, -0.11126051098108292, -0.045909006148576736, -0.08486282825469971, 0.07786930352449417, -0.005524795036762953, 0.15595032274723053, -0.07219554483890533, -0.052257440984249115, 0.01890762895345688, -0.03089652583003044, -0.011134910397231579, -0.2111653983592987, 0.1439995914697647, -0.05689127370715141, -0.033491529524326324, -0.44896677136421204, 0.0016844673082232475, -0.29244551062583923, -0.03197316825389862, -0.5993030667304993, -0.5265800952911377, -0.1566532850265503, 0.11137742549180984, 0.1806224137544632, -0.267365425825119, -0.2046266496181488, 0.05754569545388222, -0.37656813859939575, 0.17324930429458618, -0.3252829611301422, -0.05772531032562256, -0.2029051035642624, -0.014935588464140892, 0.1345246136188507, -0.28700271248817444, 0.0024803292471915483, -0.05373543128371239, -0.06955231726169586, -0.32622918486595154, -0.5400967597961426, -0.3513621389865875, 0.010143626481294632, -0.2796128988265991, -0.4597591161727905, -0.38312986493110657, -0.11185929924249649, 0.008912378922104836, -0.07859210669994354, 0.01427393313497305, 0.23227931559085846, -0.2928159236907959, -0.3094303011894226, 0.13531070947647095, 0.14510677754878998, 0.006857006810605526, -0.13532385230064392, 0.008205108344554901, -0.2082768976688385, -0.10530392825603485, -0.022732466459274292, 0.08740474283695221, 0.033576734364032745, -0.13595165312290192, 0.011919326148927212, -0.3033725619316101, -0.02309757098555565, -0.027809811756014824, -0.2733689546585083, -0.34257805347442627, -0.05593583732843399, -0.009677672758698463, -0.0744825154542923, 0.12932038307189941, -0.20940442383289337, -0.23526661098003387, -0.026136992499232292, 0.058790065348148346, -0.3763585686683655, -0.24842236936092377, 0.0010558414505794644, 0.020627476274967194, -0.16475747525691986, -0.012694680131971836, -0.4046820104122162, -0.08635609596967697, -0.06660285592079163, -0.22969669103622437, 0.1905822902917862, 0.1068645641207695, 0.18325944244861603, 0.15510402619838715, 0.022314703091979027, 0.09265674650669098, -0.1271371692419052, -0.18485583364963531, 0.03597923740744591, 0.07079238444566727, 0.20243892073631287, -0.3400469720363617, -0.4817770719528198, 0.1809024214744568, 0.07380655407905579, 0.18760676681995392, -0.07597167044878006, -0.14712278544902802, -0.08277949690818787, -0.038621872663497925, 0.016941461712121964, -0.0055185342207551, -0.32430240511894226, -0.32920339703559875, -0.37559640407562256, -0.35469111800193787, 0.06925592571496964, 0.0372101366519928, -0.22108113765716553, -0.4309106171131134, 0.08485698699951172, -0.15934830904006958, -0.049480002373456955, -0.17224526405334473, -0.24004647135734558, 0.12772805988788605, 0.054413363337516785, 0.2300608903169632, 0.05628734454512596, -0.045987583696842194, -0.35393664240837097, -0.036581311374902725, -0.0913902148604393, 0.11048571765422821, -0.24607528746128082, -0.4228998124599457, -0.38090214133262634, -0.3651605248451233, 0.007316688075661659, -0.3685183525085449, -0.1906401365995407, -0.2815195918083191, -0.4506763815879822, -0.02575467899441719, 0.14306804537773132, -0.3923056721687317, -0.33990731835365295, -0.5527576208114624, -0.005485932808369398, -0.10711776465177536, 0.10634755343198776, 0.04552030190825462, -0.14552728831768036, 0.02015622891485691, -0.232402503490448, -0.12496397644281387, -0.008637575432658195, -0.04869692400097847, -0.21276432275772095, 0.19467391073703766, 0.1869368702173233, -0.06547169387340546, -0.23151731491088867, -0.10106553137302399, -0.4065548777580261, 0.0019456384470686316, 0.02435770072042942, 0.17644882202148438, -0.3929545283317566, -0.4428863823413849, -0.18187640607357025, -0.041502971202135086, -0.006499260663986206, 0.092130146920681, -0.2976268529891968, -0.10850191861391068, -0.4454175531864166, -0.3902146518230438, -0.07889735698699951], [-0.5839425325393677, 0.019297726452350616, 0.03167978301644325, 0.07657185196876526, -0.004291452933102846, -0.04346153885126114, -0.18830405175685883, -0.03841322287917137, -0.04811832308769226, -0.16028311848640442, -0.06804084032773972, -0.34042543172836304, -0.16512633860111237, 0.14710190892219543, 0.17948545515537262, 0.004676091019064188, -0.030413951724767685, 0.014129232615232468, 0.061321113258600235, -0.004310637712478638, 0.08092913031578064, -0.010524338111281395, 0.1001133918762207, -0.23851557075977325, -0.41697943210601807, -0.47331300377845764, 0.0650428831577301, 0.14234410226345062, 0.06326831877231598, -0.24776028096675873, -0.3783033788204193, 0.014933486469089985, -0.08477457612752914, -0.08835457265377045, 0.020247140899300575, -0.2934323251247406, -0.24572288990020752, 0.03333195671439171, -0.3601965606212616, -0.11665307730436325, -0.3691897392272949, -0.3694528043270111, -0.2543981373310089, 0.1400398164987564, 0.08046279102563858, -0.1762581467628479, -0.04265657439827919, 0.150793194770813, 0.01205955259501934, -0.15542146563529968, 0.10496402531862259, -0.43269065022468567, -0.24708516895771027, -0.034746427088975906, 0.08570513129234314, 0.017236253246665, -0.05460226163268089, 0.047357700765132904, -0.31785860657691956, 0.00560047896578908, 0.010173407383263111, -0.4888010025024414, 0.11641693860292435, -0.1830514371395111, -0.012377303093671799, -0.42579638957977295, -0.39634206891059875, 0.12223906815052032, 0.14235547184944153, 0.07300681620836258, -0.12376412004232407, -0.10786804556846619, -0.03609326481819153, -0.12661704421043396, -0.07127536833286285, -0.1890546828508377, -0.03555617108941078, -0.12904027104377747, -0.0777943804860115, -0.5525436401367188, 0.057040758430957794, -0.06199052929878235, -0.0580497570335865, -0.12768445909023285, -0.13446111977100372, -0.13899224996566772, -0.012037617154419422, -0.09718848764896393, -0.397352397441864, -0.06124413385987282, -0.059657689183950424, 0.19744405150413513, -0.31230759620666504, -0.06800199300050735, -0.4784873425960541, 0.13402681052684784, -0.35016393661499023, -0.00932807195931673, -0.05781969800591469, -0.496873676776886, 0.1425894945859909, 0.009710035286843777, -0.07363810390233994, -0.09177453815937042, 0.1306258887052536, 0.17179010808467865, -0.07961345463991165, -0.3822419345378876, -0.44155025482177734, -0.17562155425548553, -0.44913583993911743, 0.14843282103538513, 0.06488735973834991, -0.32352694869041443, 0.15037095546722412, -0.04294760525226593, 0.10704324394464493, -0.01907993108034134, 0.16287806630134583, 0.04350125417113304, 0.16510266065597534, -0.33857810497283936, -0.3070012629032135, 0.07319280505180359, 0.0803007110953331, 0.1047591045498848, -0.26741287112236023, 0.06573577225208282, 0.004842443857342005, -0.11621464788913727, 0.14214245975017548, 0.11899740993976593, -0.3170124292373657, 0.06819410622119904, -0.3587641716003418, -0.2552746534347534, -0.04037339985370636, 0.15500889718532562, 0.013942152261734009, 0.06091168150305748, -0.35093799233436584, -0.1764739453792572, -0.3312724828720093, -0.031210938468575478, 0.1542554497718811, -0.04579343646764755, -0.057114798575639725, 0.1016460433602333, 0.20162416994571686, -0.21473707258701324, -0.03624898940324783, -0.0004366540815681219, -0.08880108594894409, -0.20143260061740875, -0.08545507490634918, -0.0482962504029274, -0.2830240726470947, 0.13830356299877167, 0.11768963187932968, -0.10222604870796204, -0.3784683346748352, -0.4162437319755554, -0.4370385706424713, -0.17331001162528992, -0.055808160454034805, 0.10650129616260529, -0.1377265453338623, -0.24827240407466888, -0.44205373525619507, -0.3527335226535797, -0.44168609380722046, -0.019003851339221, -0.12079770117998123, -0.3279769718647003, 0.1898021250963211, -0.02215772122144699, -0.07372730225324631, -0.2983244061470032, -0.2572442889213562, 0.05447200685739517, -0.23867185413837433, -0.10168828815221786, -0.3772587776184082, 0.12201933562755585, -0.49995294213294983, -0.1579028218984604, 0.024337051436305046, -0.040926747024059296, -0.016014669090509415, 0.11446814239025116, 0.057563234120607376, -0.10555007308721542, -0.4934998154640198, -0.1549670249223709, -0.06930561363697052, 0.16476042568683624, 0.17855949699878693, -0.353459894657135, 0.056626804172992706, -0.0009173686266876757, 0.030413324013352394, 0.021700860932469368, -0.48521852493286133, -0.3127933442592621, -0.40861231088638306, -0.15390093624591827, 0.005195593927055597, 0.052298784255981445, -0.03088456019759178, -0.16391678154468536, -0.216152161359787, 0.19857902824878693, -0.2198881357908249, 0.062477558851242065, 0.0013827004004269838, -0.23981432616710663, 0.15014488995075226, 0.009788735769689083, 0.058325156569480896, 0.1354297548532486, -0.06694524735212326, -0.0830453410744667, -0.1628149151802063, -0.38717377185821533, 0.03013484552502632, -0.027410171926021576, -0.4338805079460144, -0.4346890151500702, -0.2531864643096924, 0.15991397202014923, 0.0034487503580749035, -0.250471830368042, 0.03474343195557594, 0.007608710788190365, -0.6042022705078125, -0.37954503297805786, -0.37378785014152527, -0.2510223984718323, -0.0845237523317337, -0.4243199825286865, 0.06674659252166748, -0.5121353268623352, -0.24433575570583344, 0.06270952522754669, -0.5602723360061646, 0.14536820352077484, -0.23973692953586578, -0.48319011926651, -0.08116594702005386, -0.05412647873163223, -0.19123417139053345, -0.0228186696767807, -0.09704440832138062, -0.3333381712436676, 0.2019122838973999, 0.08976177871227264]], [[-0.09251220524311066, -0.41506433486938477, 0.07023224234580994, -0.2548424005508423, -0.03371892496943474, 0.02748199924826622, -0.020647313445806503, -0.268390029668808, -0.12342710047960281, 0.11408087611198425, -0.03950456157326698, -0.4257356822490692, 0.13471300899982452, -0.0969676747918129, -0.5778205990791321, 0.033173367381095886, -0.5261818766593933, -0.054325368255376816, -0.3049204647541046, -0.07514572143554688, -0.2355625033378601, -0.05237014591693878, 0.016226448118686676, 0.09266304969787598, 0.09259797632694244, -0.15005607903003693, -0.3508048951625824, -0.35249781608581543, 0.08941130340099335, -0.08008503913879395, 0.04745127633213997, -0.03819827362895012, 0.02458527684211731, -0.16777408123016357, -0.08008896559476852, -0.20766113698482513, -0.215375155210495, -0.4795900583267212, 0.020928703248500824, -0.007865279912948608, 0.049141962081193924, 0.03291437029838562, -0.1973685622215271, 0.1428687870502472, -0.2986079752445221, 0.0571928508579731, -0.047764554619789124, 0.04358309879899025, -0.01068561989814043, 0.02374272607266903, -0.2825770080089569, -0.43347612023353577, -0.08916429430246353, 0.09182394295930862, 0.14931724965572357, -0.00614089285954833, -0.1011003851890564, -0.19949965178966522, -0.40518268942832947, 0.011524703353643417, -0.4538024365901947, 0.1304127722978592, 0.16296251118183136, 0.14908914268016815, 0.15052470564842224, -0.09035363048315048, 0.1470997929573059, 0.1321854442358017, -0.11847749352455139, 0.028616487979888916, 0.058654267340898514, 0.009243117645382881, 0.012591098435223103, 0.01334790512919426, 0.005104378331452608, -0.03935671225190163, 0.17014996707439423, -0.5973768830299377, -0.0007234263466671109, -0.14304541051387787, -0.24794931709766388, -0.07817547023296356, -0.07871197164058685, -0.218359112739563, -0.3818049430847168, -0.2238306701183319, -0.006699913647025824, -0.028338536620140076, -0.07899153977632523, -0.019990386441349983, 0.02920670621097088, -0.09887825697660446, 0.10610391944646835, -0.0016437898157164454, 0.030635736882686615, 0.1961502581834793, -0.08062323927879333, -0.15991483628749847, 0.013167415745556355, -0.11783302575349808, 0.17547395825386047, -0.06494136899709702, 0.07935067266225815, -0.24827228486537933, -0.2363101840019226, -0.07264189422130585, 0.025512056425213814, 0.173442080616951, 0.04841386899352074, 0.028408240526914597, 0.01664377748966217, -0.2925998866558075, -0.0424053892493248, 0.09267731010913849, -0.01976862922310829, -0.013353155925869942, -0.47638100385665894, -0.003361097536981106, -0.029081447049975395, -0.42568260431289673, 0.16258841753005981, 0.17907163500785828, -0.32360896468162537, -0.013838056474924088, -0.27877047657966614, -0.17444950342178345, 0.15750430524349213, 0.19279299676418304, -0.15442264080047607, -0.04712061211466789, 0.13979044556617737, -0.49564269185066223, 0.006949740462005138, 0.1267123818397522, 0.07893669605255127, -0.4496588706970215, -0.574370265007019, -0.37405499815940857, 0.044700633734464645, -0.3311351537704468, -0.3746485412120819, -0.3374212086200714, 0.007895681075751781, 0.00505216047167778, 0.0882207527756691, 0.0043319882825016975, -0.011913917027413845, -0.3448253870010376, -0.40273863077163696, -0.11190693825483322, 0.013904345221817493, -0.21205520629882812, 0.03716299310326576, 0.08259160816669464, -0.4286545217037201, -0.0022656917572021484, 0.027911175042390823, -0.10615231841802597, -0.21397267282009125, -0.34120017290115356, -0.005418469198048115, -0.14123469591140747, 0.14639563858509064, -0.06420018523931503, 0.05466077849268913, -0.12974734604358673, 0.07644163817167282, -0.08340869098901749, 0.19372989237308502, 0.14074258506298065, -0.02142583206295967, -0.2851335108280182, -0.5227469205856323, -0.22534027695655823, 0.21374237537384033, -0.5313231348991394, -0.22300302982330322, -0.09591765701770782, -0.0981958732008934, 0.07386717945337296, -0.03392510488629341, 0.09786392003297806, 0.08070839196443558, -0.05800870433449745, 0.09326010197401047, 0.11263729631900787, 0.013890891335904598, -0.3070339858531952, 0.026385219767689705, -0.018157336860895157, 0.07028992474079132, -0.0427788682281971, 0.14485859870910645, 0.07237110286951065, -0.406960129737854, -0.009984439238905907, 0.11187741905450821, -0.031057003885507584, -0.010077066719532013, 0.011460570618510246, 0.14005179703235626, -0.08212397247552872, 0.08623889088630676, -0.5069624185562134, 0.13349469006061554, -0.2768503427505493, -0.05567731708288193, 0.013753107748925686, -0.16977863013744354, -0.3509644865989685, -0.11898250132799149, -0.36633509397506714, -0.347025603055954, 0.18256612122058868, 0.15585137903690338, -0.1931191235780716, -0.09382045269012451, -0.5228785276412964, -0.3284794092178345, 0.22598259150981903, 0.0072087631560862064, -0.05559084936976433, 0.07346657663583755, 0.0566057413816452, -0.09666283428668976, -0.043391793966293335, -0.1313040405511856, 0.00696414802223444, 0.14377807080745697, -0.2528516352176666, -0.31012243032455444, -0.040174923837184906, -0.43009263277053833, -0.04376597702503204, -0.4767150282859802, -0.01371756847947836, 0.03305845335125923, -0.2773861587047577, -0.27066224813461304, -0.32124248147010803, -0.07676234841346741, -0.5645747184753418, 0.03197159990668297, -0.09034983068704605, -0.022262506186962128, 0.1884053647518158, 0.07651160657405853, 0.06592746824026108, -0.3171694278717041, 0.02717522531747818, -0.3710782825946808, -0.04684481769800186, -0.06870151311159134, 0.031969718635082245, 0.14515633881092072, -0.14956846833229065], [0.2074335813522339, -0.13455632328987122, -0.3870600163936615, 0.1316196620464325, 0.1452617049217224, -0.1704157441854477, -0.04084686189889908, 0.12966106832027435, 0.14600369334220886, -0.10283399373292923, 0.009005706757307053, -0.43957316875457764, -0.16842596232891083, 0.10569702833890915, 0.17360025644302368, -0.09036948531866074, 0.15166743099689484, -0.05205511301755905, 0.03849489614367485, 0.009400277398526669, -0.2914073169231415, -0.07199408113956451, -0.4619405269622803, -0.01953716017305851, -0.27372533082962036, -0.3246600329875946, -0.011313640512526035, -0.2546292543411255, -0.40808454155921936, 0.04970598220825195, -0.19711649417877197, -0.0049781398847699165, -0.08986835181713104, 0.15020301938056946, -0.14179451763629913, 0.18865372240543365, 0.032122764736413956, -0.3819616138935089, 0.152058944106102, -0.05919118970632553, -0.10506109893321991, -0.13034892082214355, 0.06657429784536362, -0.1874352991580963, -0.2682020962238312, -0.29770487546920776, 0.01756804808974266, 0.1396590918302536, 0.018515070900321007, -0.08731308579444885, -0.3504975736141205, -0.13888879120349884, -0.3504524528980255, -0.05003638193011284, -0.35671886801719666, -0.07805899530649185, -0.24196498095989227, 0.14403551816940308, 0.11188120394945145, -0.034156348556280136, -0.038477037101984024, -0.36822056770324707, -0.37514790892601013, -0.2421509027481079, -0.24015170335769653, -0.04454401507973671, -0.29279446601867676, 0.0761396735906601, -0.13590197265148163, 0.0655696764588356, -0.30728310346603394, 0.03821387514472008, -0.14584431052207947, 0.03662700951099396, -0.03570542111992836, -0.04064971208572388, -0.47462403774261475, 0.03937402367591858, 0.015139168128371239, -0.14130468666553497, 0.07792657613754272, -0.03416912630200386, -0.09438835829496384, 0.1774793118238449, -0.5200953483581543, -0.3227243423461914, -0.05246593803167343, -0.018557846546173096, 0.16411440074443817, -0.024452751502394676, -0.05919835716485977, -0.1289178878068924, -0.4413624703884125, -0.10642313212156296, -0.2632559537887573, -0.3726561367511749, 0.07620152086019516, -0.036936450749635696, -0.015912549570202827, -0.010363256558775902, -0.24772167205810547, 0.0045465431176126, -0.11865007877349854, -0.0618213526904583, 0.18607448041439056, -0.3503742218017578, -0.04472700506448746, -0.22385890781879425, -0.025384558364748955, 0.08094489574432373, -0.00055190350394696, -0.2251064032316208, -0.05841882526874542, -0.42086905241012573, -0.13733308017253876, -0.03278225287795067, 0.19831730425357819, 0.027302389964461327, -0.09331173449754715, -0.49227046966552734, -0.39698541164398193, -0.13523279130458832, 0.02620891109108925, -0.4764738380908966, 0.05870567634701729, -0.2309255748987198, -0.3510318100452423, -0.18419694900512695, -0.009925463236868382, -0.3596822917461395, -0.26058706641197205, 0.06068066880106926, 0.02974775619804859, -0.25445568561553955, -0.004381194245070219, -0.06370186805725098, 0.04063499718904495, 0.08235680311918259, -0.1685650795698166, -0.3676748275756836, 0.12082400172948837, 0.028394032269716263, -0.03429626300930977, -0.023827701807022095, -0.23890666663646698, 0.01963386870920658, -0.028707001358270645, -0.025192687287926674, 0.0029160345438867807, -0.06611865758895874, 0.007275640498846769, 0.09211158007383347, -0.35467734932899475, -0.22800779342651367, 0.08010029047727585, -0.041233789175748825, 0.031245799735188484, -0.3547704517841339, -0.07358647882938385, 0.09155922383069992, -0.006412678863853216, -0.04449809342622757, -0.3755594789981842, 0.06753109395503998, 0.01565868966281414, -0.031715232878923416, -0.19158212840557098, 0.15743036568164825, -0.32303673028945923, -0.10675457864999771, -0.2979436218738556, 0.09613269567489624, -0.41064000129699707, 0.0971270278096199, -0.4213569164276123, 0.12575556337833405, -0.27522704005241394, 0.16272471845149994, -0.0470011904835701, -0.5461142063140869, 0.06813522428274155, -0.19246937334537506, -0.16613022983074188, -0.001626345212571323, -0.13551367819309235, -0.21636326611042023, -0.012528225779533386, 0.022861674427986145, 0.02268848568201065, -0.28799355030059814, -0.286589652299881, 0.0677175223827362, -0.38243481516838074, -0.504189670085907, 0.0536372996866703, -0.08816137909889221, -0.12722449004650116, -0.06767597794532776, -0.27414393424987793, -0.01553961168974638, -0.32887765765190125, -0.0967240184545517, -0.34599387645721436, -0.08041346073150635, -0.074421226978302, 0.14851675927639008, -0.10356642305850983, 0.09115651249885559, 0.018683869391679764, 0.051793426275253296, -0.11727378517389297, -0.4563866853713989, 0.08899679034948349, -0.2680679261684418, -0.39463508129119873, -0.24687963724136353, 0.028067905455827713, 0.12956023216247559, -0.3390118181705475, -0.24062477052211761, -0.06270311027765274, -0.0028282052371650934, -0.19655151665210724, -0.1364426463842392, -0.028634777292609215, -0.01641828380525112, -0.07649905979633331, -0.24258194863796234, -0.19453781843185425, 0.1822740137577057, -0.39155715703964233, 0.08910562098026276, -0.1018964871764183, 0.028036324307322502, 0.18912941217422485, 0.026074962690472603, 0.015994476154446602, -0.30601102113723755, -0.29999321699142456, -0.1294398307800293, -0.029665514826774597, -0.06196679174900055, -0.14517681300640106, 0.0036907463800162077, 0.007899493910372257, -0.2796860933303833, -0.10079436004161835, -0.36254066228866577, 0.11004406958818436, 0.1737275868654251, 0.0980987697839737, 0.08632052689790726, -0.22310741245746613, -0.07272522896528244, -0.44993287324905396, -0.060696110129356384], [-0.25886890292167664, -0.3319092392921448, -0.4095972180366516, -0.45247402787208557, -0.19738943874835968, 0.06745421886444092, -0.39755794405937195, 0.015300370752811432, 0.12107068300247192, -0.41054680943489075, 0.15461711585521698, -0.47827962040901184, -0.007240545470267534, 0.04602134972810745, -0.5479332804679871, -0.03292504698038101, -0.05180544778704643, -0.043834786862134933, 0.0708802342414856, 0.01499119307845831, -0.2993302345275879, 0.041205842047929764, 0.12487130612134933, -0.11731842905282974, -0.017319900915026665, -0.037157028913497925, 0.022984696552157402, -0.5012064576148987, -0.31236445903778076, 0.10082884877920151, 0.03523222729563713, 0.010241496376693249, -0.09487167000770569, 0.013072763569653034, 0.11768923699855804, -0.15401799976825714, 0.14896680414676666, -0.2881661355495453, -0.10804128646850586, -0.03029271773993969, -0.10469385981559753, 0.06359520554542542, -0.3166229724884033, -0.5542054176330566, -0.13090728223323822, 0.08402376621961594, 0.025313690304756165, -0.5031954050064087, -0.011642757803201675, 0.06925468146800995, -0.09921854734420776, 0.17937858402729034, 0.1135626956820488, 0.11877282708883286, -0.40520182251930237, -0.02364475466310978, 0.23068000376224518, -0.0904499813914299, 0.13338565826416016, -0.06720809638500214, 0.1458459049463272, -0.09445805102586746, -0.39386358857154846, -0.23000609874725342, -0.24383074045181274, 0.040650803595781326, -0.22581727802753448, -0.20030063390731812, 0.06789331138134003, -0.14728616178035736, -0.1210184246301651, -0.0015617940807715058, -0.058827802538871765, -0.25739291310310364, -0.06611615419387817, -0.024787934496998787, -0.2362019121646881, -0.47793063521385193, 0.0023864477407187223, 0.08685887604951859, 0.11349368095397949, -0.009260454215109348, -0.05275613069534302, -0.10469816625118256, -0.569159984588623, -0.11689401417970657, -0.043169621378183365, -0.014061526395380497, -0.034747518599033356, 0.03899194672703743, 0.029323767870664597, 0.20135755836963654, 0.09211283177137375, 0.15625499188899994, -0.08199729025363922, -0.3599644899368286, -0.140694722533226, 0.19142159819602966, 0.00027415851945988834, 0.0720030888915062, -0.5269254446029663, 0.15179724991321564, -0.4153593182563782, 0.10379865765571594, -0.30032095313072205, 0.0188932865858078, 0.011197400279343128, -0.22087153792381287, -0.38611316680908203, -0.006157141178846359, 0.048740748316049576, -0.04562709853053093, 0.16612978279590607, -0.03444404527544975, -0.12735353410243988, -0.005299972370266914, -0.4687119722366333, -0.02213725447654724, 0.09126682579517365, -0.10253819823265076, -0.08312416076660156, -0.2245796024799347, 0.20414559543132782, 0.06136397272348404, -0.28330758213996887, -0.41533663868904114, -0.19911067187786102, -0.059662625193595886, 0.005742575973272324, 0.1904941201210022, -0.09075413644313812, -0.129892498254776, 0.059739600867033005, -0.06447822600603104, 0.024256983771920204, 0.17638394236564636, -0.40542328357696533, -0.2643474042415619, 0.07637335360050201, -0.4116803705692291, 0.08906857669353485, 0.23528726398944855, -0.010640078224241734, 0.026658901944756508, -0.05595772713422775, -0.061482712626457214, -0.0228212159126997, -0.24677106738090515, -0.43168196082115173, -0.11186288297176361, -0.009423461742699146, -0.0934673622250557, 0.011511589400470257, 0.08637290447950363, -0.3262711763381958, -0.11243549734354019, -0.14268065989017487, 0.2104593962430954, -0.5173181295394897, -0.19951745867729187, 0.006547016091644764, -0.016765614971518517, -0.2965027391910553, -0.019979314878582954, -0.3432513177394867, -0.1630394160747528, 0.12714602053165436, -0.23096196353435516, -0.1996660679578781, 0.03431616723537445, 0.1612645834684372, -0.3057807981967926, 0.19103401899337769, -0.16209188103675842, -0.2999107837677002, -0.2853153944015503, -0.45740702748298645, -0.055088113993406296, 0.19233325123786926, 0.01723259873688221, -0.2173582911491394, 0.0827355906367302, 0.1384594589471817, 0.08506851643323898, -0.04143683612346649, -0.19273163378238678, -0.025694480165839195, 0.15284952521324158, -0.0276784710586071, -0.06615796685218811, -0.416188508272171, -0.23142026364803314, -0.18991824984550476, -0.18672895431518555, -0.4261813759803772, 0.18470974266529083, 0.038132816553115845, 0.08618603646755219, -0.17423266172409058, -0.004932248964905739, -0.3704492747783661, -0.41759395599365234, -0.09543748944997787, 0.14552715420722961, -0.5120075941085815, 0.029734376817941666, -0.06067795306444168, -0.05967661365866661, -0.07997321337461472, 0.03360346332192421, -0.0553315170109272, 0.21805037558078766, -0.20268601179122925, -0.29389211535453796, -0.09350239485502243, -0.40493452548980713, -0.17596019804477692, 0.034905336797237396, 0.2413080930709839, -0.16816553473472595, -0.10336361080408096, -0.053392134606838226, 0.04114178940653801, -0.2761663496494293, 0.14819437265396118, -0.08914168179035187, -0.08089375495910645, 0.046664003282785416, -0.10884122550487518, -0.27853068709373474, -0.3008229732513428, -0.0024668104015290737, 0.18061372637748718, 0.03516474738717079, -0.5457099080085754, -0.17070996761322021, 0.03970557823777199, -0.20165510475635529, -0.5013942122459412, 0.18410441279411316, -0.039374321699142456, 0.10940961539745331, 0.03013863041996956, -0.2510995864868164, 0.11724750697612762, -0.38985973596572876, 0.036502812057733536, 0.010684555396437645, 0.10448554158210754, -0.2560840845108032, -0.067745141685009, -0.13004916906356812, 0.03431401774287224, -0.01950417459011078, -0.4043472111225128, -0.0005241887993179262], [-0.060351043939590454, 0.1495436578989029, 0.07145410031080246, -0.04112710803747177, -0.3867427110671997, -0.10339342802762985, 0.09470747411251068, -0.09750653058290482, -0.24667659401893616, -0.022529272362589836, -0.285243421792984, 0.13866199553012848, -0.1332343965768814, -0.23715737462043762, -0.3435378968715668, 0.031126052141189575, -0.01580762304365635, -0.05257788300514221, -0.049154672771692276, -0.00019781955052167177, 0.16990773379802704, -0.05130667984485626, -0.39145123958587646, -0.02994057536125183, -0.23809882998466492, 0.11521776020526886, 0.1175147294998169, 0.19685709476470947, 0.046754807233810425, -0.4298488199710846, 0.009731767699122429, -0.08489713817834854, -0.12290820479393005, -0.4541512727737427, -0.467327743768692, 0.03253931924700737, -0.10017456114292145, 0.19475528597831726, -0.21419595181941986, -0.015587309375405312, 0.04338983818888664, -0.02821723371744156, 0.08993826806545258, -0.4641140401363373, 0.14939486980438232, -0.16673772037029266, -0.08142111450433731, -0.15161798894405365, -0.056076690554618835, -0.20755253732204437, 0.19018174707889557, -0.3344040811061859, -0.38465654850006104, -0.38044998049736023, -0.22042523324489594, -0.023212021216750145, -0.08272352814674377, -0.04054536670446396, -0.3756268620491028, -0.01761459745466709, -0.5341622233390808, -0.18626807630062103, -0.09448832273483276, -0.2295391857624054, -0.21284496784210205, 0.0301514845341444, -0.047228578478097916, -0.4372604191303253, 0.0023628929629921913, -0.1975965052843094, 0.06439352035522461, -0.11994140595197678, -0.05781424045562744, 0.004056695848703384, -0.037067849189043045, 0.049642279744148254, -0.13206975162029266, 0.02267458103597164, 0.014053575694561005, 0.07363799959421158, -0.058085471391677856, -0.05144217610359192, -0.006030780728906393, -0.1309788078069687, 0.1536862999200821, 0.16488999128341675, -0.057541023939847946, -0.07438415288925171, -0.5297673940658569, -0.015543370507657528, -0.058311257511377335, -0.22178465127944946, -0.35538002848625183, -0.39444759488105774, 0.08040927350521088, -0.16999630630016327, 0.010979716666042805, -0.06704433262348175, -0.015076855197548866, -0.07424969226121902, -0.4752058982849121, -0.21439576148986816, 0.012933908961713314, 0.06098109111189842, -0.06807319074869156, 0.07679697871208191, -0.08519301563501358, -0.06084883213043213, 0.058600276708602905, -0.4422878324985504, -0.07837183773517609, 0.07387223839759827, -0.42245906591415405, 0.024655617773532867, 0.1150897890329361, -0.060493603348731995, -0.11972828209400177, -0.003706953953951597, -0.05273543298244476, 0.19942940771579742, -0.1815466284751892, -0.39928799867630005, -0.045932747423648834, 0.04485013335943222, 0.14991702139377594, 0.16801871359348297, -0.42381176352500916, -0.3105325996875763, 0.02692638337612152, -0.24197712540626526, -0.05891738831996918, 0.04144244268536568, -0.2964552640914917, -0.19084292650222778, -0.2204384058713913, -0.33460721373558044, 0.06714200973510742, 0.10301276296377182, -0.27967002987861633, 0.11917464435100555, -0.27525681257247925, -0.15887749195098877, -0.37695297598838806, -0.026096852496266365, -0.08631646633148193, -0.0020298627205193043, -0.051068294793367386, 0.17349813878536224, 0.13613376021385193, 0.01644780859351158, -0.030971266329288483, -0.03471450135111809, 0.07048827409744263, -0.23903624713420868, 0.10141781717538834, -0.03257410600781441, -0.14860749244689941, -0.38803309202194214, 0.11967600882053375, 0.11661095917224884, -0.07718078047037125, -0.02908262610435486, -0.1868898570537567, -0.028018901124596596, -0.42575958371162415, 0.13120965659618378, -0.30032360553741455, -0.05131160840392113, -0.2295062392950058, -0.26139378547668457, -0.3142409324645996, 0.1914839893579483, -0.3922094702720642, -0.0035352245904505253, -0.4527064263820648, -0.04056552052497864, 0.2025218904018402, -0.17103539407253265, -0.17069444060325623, -0.19119206070899963, -0.02970481477677822, -0.45881161093711853, -0.32473742961883545, -0.10181991010904312, -0.1792651116847992, -0.04252268746495247, 0.004320132080465555, -0.05368848890066147, -0.036232221871614456, 0.03385350853204727, 0.022345224395394325, 0.05239235237240791, -0.3333091735839844, -0.043874312192201614, 0.0811815932393074, -0.2076321542263031, -0.2899087369441986, -0.1435054987668991, 0.09516646713018417, 0.024456815794110298, -0.12379294633865356, 0.13210895657539368, -0.2565554678440094, 0.012064856477081776, -0.09441728889942169, -0.06724420189857483, 0.032322000712156296, -0.057562556117773056, -0.06805496662855148, -0.008527912199497223, 0.11087843775749207, -0.1907157450914383, -0.05319633334875107, -0.25236794352531433, -0.1439172625541687, 0.12733866274356842, 0.061506424099206924, -0.5005557537078857, -0.2589190602302551, -0.3915211260318756, -0.007749905344098806, -0.07252337038516998, -0.5663995146751404, 0.14097648859024048, -0.08010402321815491, -0.02086316980421543, 0.010158599354326725, 0.02164847031235695, -0.20184671878814697, -0.0318957194685936, 0.17585662007331848, -0.28523626923561096, -0.14608100056648254, 0.047427497804164886, -0.17100407183170319, 0.0711902529001236, -0.1511838436126709, 0.1685689091682434, 0.15122197568416595, -0.15773628652095795, 0.008963399566709995, 0.05716368556022644, -0.06288311630487442, 0.06873348355293274, -0.19207118451595306, -0.38595908880233765, -0.3258075714111328, -0.01867893896996975, -0.4038707911968231, -0.19874566793441772, 0.10587356239557266, 0.0401221327483654, 0.02543075755238533, -0.07692653685808182, -0.3919998109340668, -0.04530130326747894]], [[-0.32224616408348083, -0.08078659325838089, -0.040040094405412674, 0.03256795555353165, 0.09967730939388275, -0.38550251722335815, 0.08820470422506332, -0.10891006141901016, -0.2194528430700302, 0.055627282708883286, -0.4831683337688446, 0.19474661350250244, -0.479159414768219, -0.012325110845267773, -0.17770430445671082, -0.06634308397769928, -0.2700996994972229, -0.06004716828465462, -0.16379612684249878, -0.10071359574794769, -0.37902557849884033, -0.023797988891601562, 0.1392252892255783, 0.03333905711770058, 0.09048984199762344, 0.11765331774950027, -0.26266440749168396, 0.15307237207889557, 0.008381814695894718, -0.049430735409259796, 0.02860512211918831, 0.020867669954895973, 0.003754665842279792, -0.20258104801177979, -0.28179797530174255, -0.025883542373776436, -0.2908654808998108, 0.18249079585075378, -0.10616748780012131, 0.023537052795290947, -0.09102392196655273, 0.09776116162538528, -0.49172940850257874, 0.08071903139352798, -0.5348812937736511, -0.13920746743679047, -0.026908939704298973, -0.16119182109832764, -0.04492688924074173, 0.0137653648853302, 0.08448060601949692, -0.07496688514947891, -0.09212532639503479, -0.16558605432510376, 0.07582946121692657, 0.00870828703045845, -0.4286605417728424, -0.11849459260702133, -0.3211178183555603, -0.04982202872633934, 0.050585318356752396, -0.05430786684155464, -0.3057553768157959, 0.026646574959158897, -0.1252884566783905, -0.1318088173866272, -0.17984555661678314, -0.21123634278774261, 0.045489076524972916, 0.0712365061044693, 0.07212094962596893, -0.14867731928825378, 0.008211885578930378, 0.08797997981309891, -0.10002540051937103, -0.21823757886886597, -0.24664540588855743, -0.13050080835819244, -0.02324928157031536, -0.14968833327293396, -0.03630879521369934, 0.03905399888753891, 0.025905238464474678, -0.29957208037376404, -0.38351571559906006, -0.44270074367523193, -0.0652550756931305, 0.024355633184313774, 0.12008711695671082, -0.06586313247680664, -0.04665730521082878, 0.14359930157661438, 0.055555883795022964, -0.26157259941101074, -0.46340441703796387, -0.08364955335855484, 0.03789379075169563, 0.022506851702928543, 0.009904556907713413, -0.17496469616889954, 0.05337078869342804, 0.01636759750545025, 0.1081492081284523, -0.2451704740524292, -0.06097966432571411, -0.3542276918888092, -0.06967490166425705, -0.10373437404632568, 0.13249821960926056, 0.012525863945484161, -0.03726523369550705, -0.4640542268753052, 0.09803324937820435, -0.48414433002471924, -0.31979647278785706, -0.02491108514368534, 0.19213217496871948, -0.0751764327287674, -0.26211661100387573, 0.17510536313056946, 0.09120677411556244, 0.13212592899799347, 0.002175914589315653, -0.25671839714050293, -0.14441293478012085, -0.033238012343645096, 0.15866675972938538, 0.16292399168014526, -0.044196322560310364, -0.05901951715350151, -0.17157644033432007, -0.2837275564670563, -0.05318884924054146, -0.2484176903963089, 0.013506789691746235, -0.2022772878408432, -0.29153019189834595, 0.012505192309617996, -0.26642313599586487, -0.3343456983566284, 0.014214089140295982, 0.09192400425672531, 0.03676901012659073, -0.034504786133766174, 0.06972959637641907, -0.08327513933181763, -0.07688543200492859, -0.28939875960350037, 0.15667761862277985, 0.13924606144428253, -0.03232869878411293, -0.3680150806903839, 0.09965935349464417, -0.04429631307721138, 0.09252534806728363, -0.0081764105707407, -0.2795175015926361, 0.14255495369434357, -0.45374980568885803, 0.10992973297834396, -0.01537312101572752, -0.0004637186066247523, -0.13392917811870575, 0.06676609069108963, 0.1535673588514328, 0.012911598198115826, -0.19762808084487915, -0.32253289222717285, -0.09013494849205017, -0.1383829116821289, -0.20392408967018127, -0.38779228925704956, 0.11272411793470383, -0.008407372049987316, 0.09850729256868362, -0.3072289228439331, 0.1280500292778015, -0.18389292061328888, -0.16406002640724182, -0.25533151626586914, -0.13051463663578033, -0.4406401515007019, -0.00803009606897831, -0.35350456833839417, 0.0436604768037796, 0.07088230550289154, -0.01569558121263981, -0.29098787903785706, 0.002620986197143793, 0.017739510163664818, -0.010271073319017887, 0.01155812293291092, -0.5192544460296631, 0.1310337483882904, 0.1302615851163864, 0.018834514543414116, 